svm_type c_svc
kernel_type rbf
gamma 6.36983e-005
nr_class 2
total_sv 986
rho -0.20945
label 1 -1
nr_sv 493 493
SV
1 6436:1 7466:1 12412:1 
1 35:1 163:1 260:1 465:1 562:1 733:1 743:1 763:1 793:1 908:1 918:1 938:1 968:1 1083:1 1093:1 1113:1 1143:1 1272:1 1488:1 1676:1 1688:1 1767:1 1969:1 1979:1 1999:1 2029:1 2144:1 2154:1 2174:1 2204:1 2319:1 2329:1 2349:1 2379:1 2513:1 2516:1 2530:1 2616:1 2646:1 2700:1 2978:1 3232:1 3235:1 3249:1 3335:1 3365:1 3419:1 3697:1 3951:1 3954:1 3968:1 4054:1 4084:1 4138:1 4416:1 4670:1 4673:1 4687:1 4773:1 4803:1 4857:1 5135:1 5389:1 5392:1 5406:1 5492:1 5522:1 5576:1 5854:1 6089:1 6122:1 6272:1 6296:1 6491:1 6494:1 6508:1 6594:1 6624:1 6678:1 6956:1 7303:1 7376:1 7651:1 7663:1 7705:1 7963:1 10131:1 11586:1 13632:1 14262:1 
1 92:1 183:1 219:1 319:3 393:2 672:1 733:1 804:1 908:1 979:1 1083:1 1154:1 1326:1 1414:1 1454:1 1571:3 1642:2 1911:1 1969:1 2040:1 2144:1 2215:1 2319:1 2390:1 2551:1 2676:1 2697:1 2876:2 3270:1 3395:1 3416:1 3595:2 3989:1 4114:1 4135:1 4314:2 4708:1 4833:1 4854:1 5033:2 5427:1 5552:1 5573:1 5752:2 6202:3 6371:2 6529:1 6654:1 6675:1 6854:2 7241:1 7296:1 7456:3 7724:1 7725:1 14544:3 
1 743:1 796:1 918:1 971:1 1093:1 1146:1 1979:1 2032:1 2154:1 2207:1 2329:1 2382:1 2530:1 3249:1 3968:1 4687:1 5406:1 6508:1 7651:1 7734:1 7932:1 7952:1 11586:1 13632:1 15262:1 
1 449:1 733:1 744:1 749:1 908:1 919:1 924:1 1083:1 1094:1 1099:1 1609:1 1620:1 1969:1 1980:1 1985:1 2144:1 2155:1 2160:1 2319:1 2330:1 2335:1 2923:1 3642:1 4361:1 5080:1 5799:1 6901:1 7534:1 7653:1 7657:1 11802:1 
1 28:1 183:1 1267:1 1414:1 2527:1 2676:1 2908:1 3171:1 3246:1 3395:1 3627:1 3890:1 3965:1 4114:1 4346:1 4609:1 4684:1 4833:1 5065:1 5328:1 5403:1 5552:1 5784:1 6047:1 6505:1 6654:1 6886:1 7149:1 15053:1 
1 2999:1 3718:1 4437:1 5156:1 5875:1 6977:1 11534:1 13434:1 
1 28:1 88:1 248:1 293:1 319:3 339:1 467:2 679:1 1243:1 1267:1 1330:1 1483:1 1571:3 1702:2 1739:1 2527:1 2604:2 2620:1 2722:1 2751:1 3165:1 3175:1 3246:1 3323:2 3339:1 3441:1 3470:1 3884:1 3894:1 3965:1 4042:2 4058:1 4160:1 4189:1 4603:1 4613:1 4684:1 4761:2 4777:1 4879:1 4908:1 5322:1 5332:1 5403:1 5480:2 5496:1 5598:1 5627:1 6041:1 6051:1 6075:1 6202:3 6290:1 6309:1 6390:1 6392:1 6416:1 6445:1 6505:1 6582:2 6598:1 6700:1 6729:1 7143:1 7153:1 7190:1 7335:1 7456:3 7496:1 7513:1 13280:1 14483:1 14544:3 
1 1:1 2:1 3:1 10:1 17:1 52:1 56:1 76:1 98:1 104:2 157:1 169:1 189:1 199:1 235:1 241:1 447:1 481:1 484:1 496:1 715:1 716:1 717:1 718:1 727:1 728:1 731:1 734:2 735:1 737:1 744:1 753:2 759:1 761:1 764:1 765:1 782:1 807:1 808:1 809:1 810:1 828:1 890:1 891:1 892:1 893:1 902:1 903:1 906:1 909:2 910:1 912:1 919:1 928:2 934:1 936:1 939:1 940:1 957:1 982:1 983:1 984:1 985:1 1003:1 1065:1 1066:1 1067:1 1068:1 1077:1 1078:1 1081:1 1084:2 1085:1 1087:1 1094:1 1103:2 1109:1 1111:1 1114:1 1115:1 1132:1 1157:1 1158:1 1159:1 1160:1 1178:1 1239:1 1240:1 1241:1 1248:1 1255:1 1292:1 1297:1 1323:1 1333:1 1337:2 1380:1 1418:1 1429:1 1432:1 1462:1 1464:1 1685:1 1718:1 1951:1 1952:1 1953:1 1954:1 1963:1 1964:1 1967:1 1970:2 1971:1 1973:1 1980:1 1989:2 1995:1 1997:1 2000:1 2001:1 2018:1 2043:1 2044:1 2045:1 2046:1 2064:1 2126:1 2127:1 2128:1 2129:1 2138:1 2139:1 2142:1 2145:2 2146:1 2148:1 2155:1 2164:2 2170:1 2172:1 2175:1 2176:1 2193:1 2218:1 2219:1 2220:1 2221:1 2239:1 2301:1 2302:1 2303:1 2304:1 2313:1 2314:1 2317:1 2320:2 2321:1 2323:1 2330:1 2339:2 2345:1 2347:1 2350:1 2351:1 2368:1 2393:1 2394:1 2395:1 2396:1 2414:1 2475:1 2476:1 2477:1 2478:1 2481:1 2483:1 2490:1 2503:2 2532:1 2535:1 2538:1 2553:2 2632:1 2657:1 2661:1 2662:1 2693:1 2695:1 2696:1 2797:1 2798:1 2803:1 3108:1 3194:1 3195:1 3196:1 3197:1 3200:1 3202:1 3209:1 3222:2 3251:1 3254:1 3257:1 3272:2 3351:1 3376:1 3380:1 3381:1 3412:1 3414:1 3415:1 3516:1 3517:1 3522:1 3827:1 3913:1 3914:1 3915:1 3916:1 3919:1 3921:1 3928:1 3941:2 3970:1 3973:1 3976:1 3991:2 4070:1 4095:1 4099:1 4100:1 4131:1 4133:1 4134:1 4235:1 4236:1 4241:1 4546:1 4632:1 4633:1 4634:1 4635:1 4638:1 4640:1 4647:1 4660:2 4689:1 4692:1 4695:1 4710:2 4789:1 4814:1 4818:1 4819:1 4850:1 4852:1 4853:1 4954:1 4955:1 4960:1 5265:1 5351:1 5352:1 5353:1 5354:1 5357:1 5359:1 5366:1 5379:2 5408:1 5411:1 5414:1 5429:2 5508:1 5533:1 5537:1 5538:1 5569:1 5571:1 5572:1 5673:1 5674:1 5679:1 5984:1 6071:1 6072:1 6074:1 6077:1 6086:1 6232:1 6271:1 6287:1 6304:1 6319:1 6453:1 6454:1 6455:1 6456:1 6459:1 6461:1 6468:1 6481:2 6510:1 6513:1 6516:1 6531:2 6610:1 6635:1 6639:1 6640:1 6671:1 6673:1 6674:1 6775:1 6776:1 6781:1 7086:1 7172:1 7173:1 7174:1 7175:1 7184:1 7185:1 7255:1 7273:1 7287:1 7343:1 7354:1 7389:1 7395:1 7444:2 7445:1 7512:1 7595:1 7624:1 7625:1 7626:1 7635:1 7636:1 7641:1 7643:1 7645:2 7648:1 7653:1 7659:2 7667:1 7669:1 7671:1 7673:1 7677:1 7710:1 7711:1 7712:1 7714:1 7716:1 7845:1 7949:1 8030:1 9178:1 10490:1 10512:1 11382:1 11411:1 11774:1 12838:1 12922:1 13738:1 14539:2 14747:1 15122:1 
1 97:1 399:1 447:1 734:1 909:1 1084:1 1334:1 1680:1 1685:1 1970:1 2145:1 2320:1 2503:1 2803:1 3222:1 3522:1 3941:1 4241:1 4660:1 4960:1 5379:1 5679:1 6090:1 6481:1 6781:1 7231:1 7645:1 7762:1 9085:1 9087:1 13037:1 13196:1 15262:1 
1 13004:1 
1 880:1 1055:1 1230:1 2116:1 2291:1 2466:1 3087:1 3806:1 4525:1 5244:1 5963:1 6231:1 7065:1 7412:1 7799:1 7860:1 
1 202:1 341:1 670:1 733:2 865:1 908:2 1040:1 1083:2 1215:1 1442:1 1597:1 1903:1 1969:2 2101:1 2144:2 2276:1 2319:2 2451:1 2700:1 2875:1 2905:1 3093:1 3419:1 3594:1 3624:1 3812:1 4138:1 4313:1 4343:1 4531:1 4857:1 5032:1 5062:1 5250:1 5576:1 5751:1 5781:1 5969:1 6085:1 6401:1 6678:1 6853:1 6883:1 7071:1 7217:1 7826:1 7963:1 7971:1 15286:1 
1 813:1 988:1 1163:1 2049:1 2224:1 2399:1 6307:1 7622:1 
1 26:1 733:2 794:1 908:2 969:1 1083:2 1144:1 1260:1 1969:2 2030:1 2144:2 2205:1 2319:2 2380:1 2700:1 2837:1 3419:1 3556:1 4138:1 4275:1 4857:1 4994:1 5576:1 5713:1 6678:1 6815:1 7269:1 7708:1 7963:1 12210:1 13655:1 
1 733:1 745:1 775:1 908:1 920:1 950:1 1083:1 1095:1 1125:1 1969:1 1981:1 2011:1 2144:1 2156:1 2186:1 2319:1 2331:1 2361:1 3126:1 3845:1 4564:1 5283:1 6002:1 6422:1 7104:1 7301:1 7654:1 7678:1 
1 177:1 1313:1 6260:1 
1 37:1 43:1 66:1 88:1 95:1 149:1 165:1 202:1 341:1 387:1 473:1 733:1 736:2 908:1 911:2 1083:1 1086:2 1283:1 1303:1 1330:1 1353:1 1390:1 1407:1 1435:1 1442:1 1597:1 1626:1 1681:1 1716:1 1969:1 1972:2 2144:1 2147:2 2319:1 2322:2 2482:2 2544:1 2620:1 2634:1 2700:1 2732:1 2785:1 2801:1 2875:1 2905:1 3182:1 3201:2 3263:1 3339:1 3353:1 3419:1 3451:1 3504:1 3520:1 3594:1 3624:1 3901:1 3920:2 3982:1 4058:1 4072:1 4138:1 4170:1 4223:1 4239:1 4313:1 4343:1 4620:1 4639:2 4701:1 4777:1 4791:1 4857:1 4889:1 4942:1 4958:1 5032:1 5062:1 5339:1 5358:2 5420:1 5496:1 5510:1 5576:1 5608:1 5661:1 5677:1 5751:1 5781:1 6058:1 6075:1 6085:1 6134:1 6145:1 6181:1 6460:2 6522:1 6598:1 6612:1 6678:1 6710:1 6763:1 6779:1 6853:1 6883:1 7160:1 7190:1 7217:1 7243:1 7259:1 7286:1 7582:1 7638:2 7963:1 9475:1 11783:1 13316:1 15364:1 
1 853:1 1028:1 1203:1 2089:1 2264:1 2439:1 7646:1 9379:1 
1 94:2 733:1 804:1 908:1 979:1 1083:1 1154:1 1969:1 2040:1 2144:1 2215:1 2319:1 2390:1 7724:1 
1 219:1 813:1 988:1 1163:1 1454:1 2049:1 2224:1 2399:1 2552:1 2697:1 3271:1 3416:1 3990:1 4135:1 4709:1 4854:1 5428:1 5573:1 6203:1 6208:1 6530:1 6675:1 7280:1 7288:1 7613:1 7622:1 
1 66:1 727:1 733:1 902:1 908:1 1077:1 1083:1 1303:1 1963:1 1969:1 2138:1 2144:1 2313:1 2319:1 2481:1 2544:1 2771:1 2775:1 2874:1 3085:1 3200:1 3263:1 3490:1 3494:1 3593:1 3804:1 3919:1 3982:1 4209:1 4213:1 4312:1 4523:1 4638:1 4701:1 4928:1 4932:1 5031:1 5242:1 5357:1 5420:1 5647:1 5651:1 5750:1 5961:1 6169:1 6398:1 6459:1 6522:1 6749:1 6753:1 6852:1 7063:1 7265:1 7387:1 7483:1 7635:1 7802:1 7949:1 8036:1 11398:1 11411:1 11783:1 12922:1 14133:1 
1 273:1 311:1 434:1 733:1 736:1 769:1 774:1 813:1 908:1 911:1 944:1 949:1 988:1 1083:1 1086:1 1119:1 1124:1 1163:1 1486:1 1560:1 1667:1 1969:1 1972:1 2005:1 2010:1 2049:1 2144:1 2147:1 2180:1 2185:1 2224:1 2319:1 2322:1 2355:1 2360:1 2399:1 2482:1 2504:1 2552:1 2578:1 2625:1 3201:1 3223:1 3271:1 3297:1 3344:1 3920:1 3942:1 3990:1 4016:1 4063:1 4639:1 4661:1 4709:1 4735:1 4782:1 5358:1 5380:1 5428:1 5454:1 5501:1 6123:1 6303:1 6349:1 6460:1 6482:1 6530:1 6556:1 6603:1 7239:1 7474:1 7571:1 7622:1 7638:1 7688:1 7689:1 
1 733:2 744:1 745:1 908:2 919:1 920:1 1083:2 1094:1 1095:1 1969:2 1980:1 1981:1 2144:2 2155:1 2156:1 2319:2 2330:1 2331:1 6255:1 7482:1 7653:1 7654:1 
1 12:1 17:1 19:1 37:1 51:2 88:1 114:1 120:1 127:1 208:1 210:1 225:1 273:1 311:1 319:1 327:1 502:2 621:1 731:1 732:1 734:1 735:1 737:1 739:1 744:1 769:1 774:1 801:2 878:1 906:1 907:1 909:1 910:1 912:1 914:1 919:1 944:1 949:1 976:2 1053:1 1081:1 1082:1 1084:1 1085:1 1087:1 1089:1 1094:1 1119:1 1124:1 1151:2 1228:1 1251:1 1255:1 1257:1 1279:1 1287:2 1330:1 1355:1 1362:1 1430:1 1435:1 1443:1 1485:1 1486:1 1560:1 1571:1 1577:1 1651:2 1937:1 1967:1 1968:1 1970:1 1971:1 1973:1 1975:1 1980:1 2005:1 2010:1 2037:2 2114:1 2142:1 2143:1 2145:1 2146:1 2148:1 2150:1 2155:1 2180:1 2185:1 2212:2 2289:1 2317:1 2318:1 2320:1 2321:1 2323:1 2325:1 2330:1 2355:1 2360:1 2387:2 2464:1 2490:1 2492:1 2494:1 2503:1 2513:1 2560:2 2578:1 2620:1 2625:1 2644:1 2721:1 2742:1 2755:1 2771:1 2851:1 3003:1 3209:1 3211:1 3213:1 3222:1 3232:1 3279:2 3297:1 3339:1 3344:1 3363:1 3440:1 3461:1 3474:1 3490:1 3570:1 3722:1 3928:1 3930:1 3932:1 3941:1 3951:1 3998:2 4016:1 4058:1 4063:1 4082:1 4159:1 4180:1 4193:1 4209:1 4289:1 4441:1 4647:1 4649:1 4651:1 4660:1 4670:1 4717:2 4735:1 4777:1 4782:1 4801:1 4878:1 4899:1 4912:1 4928:1 5008:1 5160:1 5366:1 5368:1 5370:1 5379:1 5389:1 5436:2 5454:1 5496:1 5501:1 5520:1 5597:1 5618:1 5631:1 5647:1 5727:1 5879:1 6075:1 6077:1 6123:1 6150:2 6190:1 6202:1 6468:1 6470:1 6472:1 6481:1 6491:1 6538:2 6556:1 6598:1 6603:1 6622:1 6699:1 6720:1 6733:1 6749:1 6829:1 6981:1 7185:1 7190:1 7239:1 7244:2 7302:1 7417:1 7438:1 7456:1 7640:1 7641:1 7643:1 7644:1 7645:1 7648:1 7653:1 7688:1 7689:1 7713:2 7758:1 7803:1 7858:1 7875:1 10490:1 11367:2 11408:1 11774:1 11929:1 12579:1 12950:1 13276:2 13282:1 14133:1 14544:1 14747:1 15364:1 
1 137:1 141:1 205:1 249:1 584:2 621:1 624:1 714:2 733:1 853:1 889:2 908:1 1028:1 1064:2 1083:1 1203:1 1304:1 1332:2 1438:1 1506:1 1677:1 1842:1 1918:1 1950:2 1969:1 2089:1 2125:2 2144:1 2264:1 2300:2 2319:1 2439:1 2554:2 2638:1 2644:1 2734:1 2881:1 2904:1 2999:2 3273:2 3357:1 3363:1 3453:1 3600:1 3623:1 3718:2 3992:2 4076:1 4082:1 4172:1 4319:1 4342:1 4437:2 4711:2 4795:1 4801:1 4891:1 5038:1 5061:1 5156:2 5430:2 5514:1 5520:1 5610:1 5757:1 5780:1 5875:2 6186:1 6196:1 6338:1 6408:1 6532:2 6616:1 6622:1 6712:1 6859:1 6882:1 6977:2 7182:1 7215:1 7322:1 7371:1 7450:1 7467:1 7623:2 7646:1 7740:2 7797:1 7803:1 8065:1 8549:1 11404:1 12579:1 12950:1 15236:1 15310:1 
1 734:1 744:1 909:1 919:1 1084:1 1094:1 1970:1 1980:1 2145:1 2155:1 2320:1 2330:1 2503:1 3222:1 3941:1 4660:1 5379:1 6481:1 7645:1 7653:1 14883:1 
1 773:1 948:1 1123:1 2009:1 2184:1 2359:1 2509:1 2639:1 3228:1 3358:1 3947:1 4077:1 4666:1 4796:1 5385:1 5515:1 6487:1 6617:1 7684:1 11047:1 
1 743:2 749:1 918:2 924:1 1093:2 1099:1 1979:2 1985:1 2154:2 2160:1 2329:2 2335:1 2530:2 3249:2 3968:2 4687:2 5406:2 6133:2 6508:2 7284:2 7651:2 7657:1 11586:2 13632:2 
1 193:1 198:1 735:1 910:1 1085:1 1445:1 1447:1 1971:1 2146:1 2321:1 2547:1 2666:1 3266:1 3385:1 3985:1 4104:1 4704:1 4823:1 5423:1 5542:1 6102:1 6525:1 6644:1 7234:1 7643:1 7701:1 10490:1 11398:1 14747:1 
1 37:1 588:1 1284:1 1435:1 1755:1 2746:1 3465:1 4184:1 4903:1 5622:1 6242:1 6357:1 6395:1 6724:1 7437:1 7440:1 7479:1 8009:1 10078:1 15364:1 
1 744:1 766:1 919:1 941:1 1094:1 1116:1 1980:1 2002:1 2155:1 2177:1 2330:1 2352:1 2515:1 2638:1 3234:1 3357:1 3953:1 4076:1 4672:1 4795:1 5391:1 5514:1 6493:1 6616:1 7653:1 7686:1 8065:1 11404:1 
1 516:1 589:1 733:1 734:1 736:1 908:1 909:1 911:1 1083:1 1084:1 1086:1 1585:1 1835:1 1969:1 1970:1 1972:1 2144:1 2145:1 2147:1 2319:1 2320:1 2322:1 2482:1 2503:1 2948:1 3201:1 3222:1 3667:1 3920:1 3941:1 4386:1 4639:1 4660:1 5105:1 5358:1 5379:1 5824:1 6229:1 6460:1 6481:1 6926:1 7359:1 7638:1 7645:1 7962:1 14245:1 
1 26:1 1260:1 2837:1 3556:1 4275:1 4994:1 5713:1 6815:1 
1 18:1 217:1 259:1 355:1 727:1 750:1 902:1 925:1 1077:1 1100:1 1256:1 1459:1 1510:1 1624:1 1963:1 1986:1 2138:1 2161:1 2313:1 2336:1 2481:1 2501:1 2506:1 2665:1 3200:1 3220:1 3225:1 3384:1 3919:1 3939:1 3944:1 4103:1 4638:1 4658:1 4663:1 4822:1 5357:1 5377:1 5382:1 5541:1 6105:1 6353:1 6403:1 6459:1 6479:1 6484:1 6643:1 7202:1 7344:1 7495:1 7566:1 7635:1 7656:1 7797:1 7949:1 11411:1 12922:1 15101:1 
1 6127:1 7353:1 11906:1 
1 35:1 163:1 221:2 260:1 465:1 562:1 763:1 793:1 938:1 968:1 1113:1 1143:1 1272:1 1488:1 1676:1 1688:1 1767:1 1784:2 1999:1 2029:1 2174:1 2204:1 2349:1 2379:1 2516:1 2616:1 2646:1 2978:1 3235:1 3335:1 3365:1 3697:1 3954:1 4054:1 4084:1 4416:1 4673:1 4773:1 4803:1 5135:1 5392:1 5492:1 5522:1 5854:1 6089:1 6122:1 6272:1 6296:1 6350:2 6494:1 6594:1 6624:1 6956:1 7181:2 7303:1 7352:1 7376:1 7663:1 7705:1 10131:1 
1 577:2 738:2 913:2 1088:2 1743:2 1974:2 2149:2 2324:2 3111:2 3830:2 4549:2 5268:2 5987:2 7089:2 7850:2 
1 323:1 765:1 940:1 1115:1 1329:1 2001:1 2176:1 2351:1 3130:1 3849:1 4568:1 5287:1 6006:1 7108:1 7669:1 13738:1 
1 1:1 2:1 3:1 10:1 19:1 92:1 149:1 164:1 715:1 716:1 717:1 718:1 727:1 728:1 739:1 853:1 890:1 891:1 892:1 893:1 902:1 903:1 914:1 1028:1 1065:1 1066:1 1067:1 1068:1 1077:1 1078:1 1089:1 1203:1 1239:1 1240:1 1241:1 1248:1 1257:1 1326:1 1390:1 1401:1 1951:1 1952:1 1953:1 1954:1 1963:1 1964:1 1975:1 2089:1 2126:1 2127:1 2128:1 2129:1 2138:1 2139:1 2150:1 2264:1 2301:1 2302:1 2303:1 2304:1 2313:1 2314:1 2325:1 2439:1 2475:1 2476:1 2477:1 2478:1 2481:1 2483:1 2494:1 2551:1 2634:1 2636:1 3194:1 3195:1 3196:1 3197:1 3200:1 3202:1 3213:1 3270:1 3353:1 3355:1 3913:1 3914:1 3915:1 3916:1 3919:1 3921:1 3932:1 3989:1 4072:1 4074:1 4632:1 4633:1 4634:1 4635:1 4638:1 4640:1 4651:1 4708:1 4791:1 4793:1 5351:1 5352:1 5353:1 5354:1 5357:1 5359:1 5370:1 5427:1 5510:1 5512:1 6071:1 6072:1 6074:1 6086:1 6453:1 6454:1 6455:1 6456:1 6459:1 6461:1 6472:1 6529:1 6612:1 6614:1 7172:1 7173:1 7174:1 7175:1 7184:1 7241:1 7582:1 7624:1 7625:1 7626:1 7635:1 7636:1 7644:1 7646:1 7725:1 7949:1 9178:1 11411:1 11929:1 12922:1 
1 114:1 516:1 744:1 749:1 919:1 924:1 1094:1 1099:1 1279:1 1585:1 1980:1 1985:1 2155:1 2160:1 2330:1 2335:1 2948:1 3667:1 4386:1 5105:1 5824:1 6126:1 6926:1 7653:1 7657:1 
1 28:1 370:1 727:1 734:2 756:1 850:1 851:1 902:1 909:2 931:1 1025:1 1026:1 1077:1 1084:2 1106:1 1200:1 1201:1 1267:1 1812:1 1963:1 1970:2 1992:1 2086:1 2087:1 2138:1 2145:2 2167:1 2261:1 2262:1 2313:1 2320:2 2342:1 2436:1 2437:1 2481:1 2498:1 2503:2 2527:1 2563:1 3200:1 3217:1 3222:2 3246:1 3282:1 3919:1 3936:1 3941:2 3965:1 4001:1 4638:1 4655:1 4660:2 4684:1 4720:1 5357:1 5374:1 5379:2 5403:1 5439:1 6383:1 6438:1 6459:1 6476:1 6481:2 6505:1 6541:1 7247:1 7511:1 7614:1 7635:1 7645:2 7660:1 7772:1 7949:1 11411:1 12922:1 13013:1 15262:1 
1 323:1 362:2 387:1 598:1 702:1 727:1 794:1 814:1 834:2 884:1 902:1 969:1 989:1 1009:2 1059:1 1077:1 1144:1 1164:1 1184:2 1234:1 1329:1 1626:1 1629:2 1837:1 1963:1 2030:1 2050:1 2070:2 2120:1 2138:1 2205:1 2225:1 2245:2 2295:1 2313:1 2380:1 2400:1 2420:2 2470:1 2481:1 2512:2 2531:1 3061:2 3101:1 3130:1 3152:1 3200:1 3231:2 3250:1 3780:2 3820:1 3849:1 3871:1 3919:1 3950:2 3969:1 4499:2 4539:1 4568:1 4590:1 4638:1 4669:2 4688:1 5218:2 5258:1 5287:1 5309:1 5357:1 5388:2 5407:1 5937:2 5977:1 6006:1 6028:1 6118:1 6216:1 6246:1 6459:1 6490:2 6509:1 7039:2 7079:1 7108:1 7130:1 7233:1 7336:1 7469:1 7635:1 7708:1 7771:2 7831:1 7949:1 10451:2 10941:2 11411:1 12922:1 12950:1 13407:1 
1 193:1 252:2 265:2 735:1 752:1 757:1 786:1 796:1 910:1 927:1 932:1 961:1 971:1 1085:1 1102:1 1107:1 1136:1 1146:1 1447:1 1491:2 1495:2 1971:1 1988:1 1993:1 2022:1 2032:1 2146:1 2163:1 2168:1 2197:1 2207:1 2321:1 2338:1 2343:1 2372:1 2382:1 2519:1 2524:1 2547:1 3238:1 3243:1 3266:1 3957:1 3962:1 3985:1 4676:1 4681:1 4704:1 5395:1 5400:1 5423:1 6102:1 6132:2 6170:2 6258:1 6497:1 6502:1 6525:1 7234:1 7238:2 7256:2 7372:1 7643:1 7662:1 7668:1 7685:1 7701:1 7734:1 7932:1 7952:1 8053:1 10490:1 11398:1 12296:1 14244:2 14747:1 
1 22:1 747:1 922:1 1097:1 1259:1 1983:1 2158:1 2333:1 3004:1 3723:1 4442:1 5161:1 5880:1 6982:1 7652:1 7931:1 
1 577:1 733:1 738:1 908:1 913:1 1083:1 1088:1 1743:1 1969:1 1974:1 2144:1 2149:1 2319:1 2324:1 3111:1 3830:1 4549:1 5268:1 5987:1 7089:1 7850:1 
1 249:1 263:1 398:1 735:1 794:2 853:1 857:1 858:1 910:1 969:2 1028:1 1032:1 1033:1 1085:1 1144:2 1203:1 1207:1 1208:1 1501:1 1506:1 1614:1 1971:1 2030:2 2089:1 2093:1 2094:1 2146:1 2205:2 2264:1 2268:1 2269:1 2321:1 2380:2 2439:1 2443:1 2444:1 2575:1 3092:1 3294:1 3811:1 4013:1 4530:1 4732:1 5249:1 5451:1 5968:1 6155:1 6278:1 6408:1 6553:1 7070:1 7407:1 7492:1 7643:1 7646:1 7708:2 7821:1 10490:1 11360:1 14306:1 14747:1 
1 12:1 25:1 475:1 732:1 733:2 777:1 814:1 907:1 908:2 952:1 989:1 1082:1 1083:2 1127:1 1164:1 1251:1 1364:1 1968:1 1969:2 2013:1 2050:1 2143:1 2144:2 2188:1 2225:1 2318:1 2319:2 2363:1 2400:1 2492:1 2528:1 2685:1 3211:1 3247:1 3404:1 3930:1 3966:1 4123:1 4649:1 4685:1 4842:1 5368:1 5404:1 5561:1 6097:1 6173:1 6470:1 6506:1 6663:1 7279:1 7396:1 7451:1 7640:1 7729:1 12493:1 13065:1 14262:1 
1 572:2 775:2 950:2 1125:2 1822:2 2011:2 2186:2 2361:2 2583:1 2700:1 3302:1 3419:1 4021:1 4138:1 4740:1 4857:1 5459:1 5576:1 6146:2 6561:1 6678:1 7678:2 7963:1 9647:2 
1 66:2 127:1 147:1 161:1 349:1 745:2 784:1 804:1 860:1 920:2 959:1 979:1 1035:1 1095:2 1134:1 1154:1 1210:1 1303:2 1362:1 1391:1 1397:1 1576:1 1742:1 1868:1 1981:2 2020:1 2040:1 2096:1 2156:2 2195:1 2215:1 2271:1 2331:2 2370:1 2390:1 2446:1 2513:2 2544:2 2554:1 2576:1 2608:1 2629:1 2727:1 2771:1 2851:1 2897:1 2949:1 3232:2 3263:2 3273:1 3295:1 3327:1 3348:1 3446:1 3490:1 3570:1 3616:1 3668:1 3951:2 3982:2 3992:1 4014:1 4046:1 4067:1 4165:1 4209:1 4289:1 4335:1 4387:1 4670:2 4701:2 4711:1 4733:1 4765:1 4786:1 4884:1 4928:1 5008:1 5054:1 5106:1 5389:2 5420:2 5430:1 5452:1 5484:1 5505:1 5603:1 5647:1 5727:1 5773:1 5825:1 6281:1 6317:1 6491:2 6522:2 6532:1 6554:1 6586:1 6607:1 6705:1 6749:1 6829:1 6875:1 6927:1 7367:1 7377:1 7417:1 7533:1 7642:1 7654:2 7690:1 7724:1 7740:1 7823:1 7944:1 7982:1 7989:1 8009:1 8017:1 11783:2 11926:1 12927:1 14133:1 14262:1 14809:1 
1 205:1 727:1 744:1 814:1 902:1 919:1 989:1 1077:1 1094:1 1164:1 1438:1 1881:1 1963:1 1980:1 2050:1 2138:1 2155:1 2225:1 2313:1 2330:1 2400:1 2481:1 2734:1 2904:1 3058:1 3200:1 3453:1 3623:1 3777:1 3919:1 4172:1 4342:1 4496:1 4638:1 4891:1 5061:1 5215:1 5357:1 5610:1 5780:1 5934:1 6313:1 6459:1 6712:1 6882:1 7036:1 7322:1 7517:1 7521:1 7635:1 7653:1 7767:1 7949:1 11411:1 11858:1 12922:1 14918:1 
1 794:1 969:1 1144:1 2030:1 2205:1 2380:1 7708:1 
1 63:1 312:1 494:1 522:1 777:2 785:1 831:1 952:2 960:1 1006:1 1127:2 1135:1 1181:1 1300:1 1563:1 1749:1 2013:2 2021:1 2067:1 2188:2 2196:1 2242:1 2363:2 2371:1 2417:1 2513:1 2860:1 3232:1 3579:1 3951:1 4298:1 4670:1 5017:1 5389:1 5736:1 6491:1 6838:1 7556:1 7581:1 7694:1 7848:1 9749:1 11838:1 13065:2 14808:1 
1 37:2 66:1 745:1 920:1 1095:1 1303:1 1435:2 1981:1 2156:1 2331:1 2544:1 3263:1 3982:1 4701:1 5420:1 6522:1 7654:1 10635:1 11398:1 11783:1 15364:2 
1 67:1 193:1 252:2 265:2 577:1 735:1 738:1 752:1 757:1 786:1 796:1 910:1 913:1 927:1 932:1 961:1 971:1 1085:1 1088:1 1102:1 1107:1 1136:1 1146:1 1306:1 1447:1 1491:2 1495:2 1743:1 1971:1 1974:1 1988:1 1993:1 2022:1 2032:1 2146:1 2149:1 2163:1 2168:1 2197:1 2207:1 2321:1 2324:1 2338:1 2343:1 2372:1 2382:1 2519:1 2524:1 2547:1 2639:1 3111:1 3186:1 3238:1 3243:1 3266:1 3358:1 3830:1 3905:1 3957:1 3962:1 3985:1 4077:1 4549:1 4624:1 4676:1 4681:1 4704:1 4796:1 5268:1 5343:1 5395:1 5400:1 5423:1 5515:1 5987:1 6062:1 6102:1 6132:2 6170:2 6254:1 6258:1 6433:1 6497:1 6502:1 6525:1 6617:1 7089:1 7164:1 7234:1 7238:2 7256:2 7372:1 7449:1 7580:1 7643:1 7662:1 7668:1 7685:1 7701:1 7734:1 7850:1 7932:1 7952:1 8053:1 10490:1 11398:1 12296:1 14244:2 14747:1 
1 28:1 557:1 796:1 971:1 1146:1 1267:1 1511:1 2032:1 2207:1 2382:1 2527:1 3246:1 3965:1 4684:1 5403:1 6178:1 6505:1 7734:1 7932:1 7952:1 13848:1 
1 66:1 323:1 1303:1 1329:1 2544:1 3130:1 3263:1 3849:1 3982:1 4568:1 4701:1 5287:1 5420:1 6006:1 6522:1 7108:1 7989:1 11783:1 
1 1:1 2:1 3:1 12:2 17:1 33:1 68:1 160:1 215:1 222:2 269:1 297:1 357:1 360:1 402:1 403:1 414:1 445:1 715:1 716:1 717:1 718:1 729:1 731:1 732:2 758:1 773:1 796:1 890:1 891:1 892:1 893:1 904:1 906:1 907:2 933:1 948:1 971:1 1065:1 1066:1 1067:1 1068:1 1079:1 1081:1 1082:2 1108:1 1123:1 1146:1 1239:1 1240:1 1241:1 1251:2 1255:1 1274:1 1305:1 1396:1 1457:1 1460:2 1500:1 1535:1 1607:1 1617:1 1670:1 1708:1 1710:1 1712:1 1951:1 1952:1 1953:1 1954:1 1965:1 1967:1 1968:2 1994:1 2009:1 2032:1 2126:1 2127:1 2128:1 2129:1 2140:1 2142:1 2143:2 2169:1 2184:1 2207:1 2301:1 2302:1 2303:1 2304:1 2315:1 2317:1 2318:2 2344:1 2359:1 2382:1 2475:1 2476:1 2477:1 2478:1 2490:1 2492:2 2508:1 2509:1 2664:1 2725:1 2859:1 3194:1 3195:1 3196:1 3197:1 3209:1 3211:2 3227:1 3228:1 3383:1 3444:1 3578:1 3913:1 3914:1 3915:1 3916:1 3928:1 3930:2 3946:1 3947:1 4102:1 4163:1 4297:1 4632:1 4633:1 4634:1 4635:1 4647:1 4649:2 4665:1 4666:1 4821:1 4882:1 5016:1 5351:1 5352:1 5353:1 5354:1 5366:1 5368:2 5384:1 5385:1 5540:1 5601:1 5735:1 6071:1 6072:1 6074:1 6077:1 6116:1 6199:1 6210:1 6266:2 6446:1 6453:1 6454:1 6455:1 6456:1 6468:1 6470:2 6486:1 6487:1 6642:1 6703:1 6837:1 7172:1 7173:1 7174:1 7175:1 7185:1 7232:1 7249:1 7257:1 7383:1 7394:1 7430:1 7447:1 7452:2 7462:1 7601:1 7624:1 7625:1 7626:1 7640:2 7641:1 7670:1 7684:1 7734:1 7763:1 7932:1 7952:1 11361:1 11552:2 11816:1 12281:1 
1 19:1 284:1 739:1 792:1 813:1 914:1 967:1 988:1 1089:1 1142:1 1163:1 1257:1 1522:1 1975:1 2028:1 2049:1 2150:1 2203:1 2224:1 2325:1 2378:1 2399:1 2494:1 2760:1 3213:1 3479:1 3932:1 4198:1 4651:1 4917:1 5370:1 5636:1 6310:1 6472:1 6738:1 7504:1 7622:1 7644:1 7718:1 7894:1 9053:1 11929:1 12997:1 
1 28:1 98:1 263:1 764:1 814:1 858:1 939:1 989:1 1033:1 1114:1 1164:1 1208:1 1267:1 1333:1 1501:1 2000:1 2050:1 2094:1 2175:1 2225:1 2269:1 2350:1 2400:1 2444:1 2527:1 2535:1 2762:1 3246:1 3254:1 3481:1 3965:1 3973:1 4200:1 4684:1 4692:1 4919:1 5403:1 5411:1 5638:1 6505:1 6513:1 6740:1 7273:1 7290:1 7673:1 8646:1 8758:1 12453:1 15029:1 
1 18:1 217:1 233:1 259:2 363:1 727:1 750:1 902:1 925:1 1077:1 1100:1 1256:1 1459:1 1510:2 1514:1 1601:1 1963:1 1986:1 2138:1 2161:1 2313:1 2336:1 2481:1 2501:1 2506:2 2730:1 3200:1 3220:1 3225:2 3449:1 3919:1 3939:1 3944:2 4168:1 4638:1 4658:1 4663:2 4887:1 5357:1 5377:1 5382:2 5606:1 6105:1 6137:1 6222:1 6345:1 6362:1 6403:1 6426:1 6459:1 6479:1 6484:2 6708:1 7202:1 7326:1 7344:1 7495:1 7503:1 7566:1 7635:1 7656:1 7744:1 7949:1 11411:1 12922:1 14779:1 
1 79:1 727:1 736:1 741:1 783:2 902:1 911:1 916:1 958:2 1077:1 1086:1 1091:1 1133:2 1324:1 1963:1 1972:1 1977:1 2019:2 2138:1 2147:1 2152:1 2194:2 2313:1 2322:1 2327:1 2369:2 2481:1 2482:1 2656:1 3200:1 3201:1 3375:1 3919:1 3920:1 4094:1 4638:1 4639:1 4813:1 5357:1 5358:1 5532:1 6277:1 6459:1 6460:1 6634:1 7211:1 7635:1 7638:1 7650:1 7658:2 7949:1 11206:1 11411:1 11515:1 12922:1 13823:1 14262:1 
1 26:1 96:1 517:1 594:1 733:1 871:1 888:1 908:1 1046:1 1063:1 1083:1 1221:1 1238:1 1260:1 1388:1 1746:1 1766:1 1969:1 2107:1 2124:1 2144:1 2282:1 2299:1 2319:1 2457:1 2474:1 2837:1 2856:1 3556:1 3575:1 4275:1 4294:1 4994:1 5013:1 5713:1 5732:1 6435:1 6815:1 6834:1 7300:1 7443:1 7815:1 7816:1 
1 12:1 74:1 126:1 462:1 644:1 732:1 800:1 907:1 975:1 1082:1 1150:1 1251:1 1363:1 1687:1 1853:1 1867:1 1968:1 2036:1 2143:1 2211:1 2318:1 2386:1 2492:1 2531:1 2585:1 3211:1 3250:1 3304:1 3930:1 3969:1 4023:1 4649:1 4688:1 4742:1 5368:1 5407:1 5461:1 6470:1 6509:1 6563:1 7590:1 7592:1 7640:1 7715:1 11480:1 11805:1 11858:1 13407:1 14918:1 
1 1:1 2:1 3:1 315:1 327:1 431:1 433:1 438:1 440:1 448:1 715:1 716:1 717:1 718:1 735:1 749:1 752:1 878:1 890:1 891:1 892:1 893:1 910:1 924:1 927:1 1053:1 1065:1 1066:1 1067:1 1068:1 1085:1 1099:1 1102:1 1228:1 1239:1 1240:1 1241:1 1577:1 1582:1 1653:1 1654:1 1656:1 1662:1 1663:1 1951:1 1952:1 1953:1 1954:1 1971:1 1985:1 1988:1 2114:1 2126:1 2127:1 2128:1 2129:1 2146:1 2160:1 2163:1 2289:1 2301:1 2302:1 2303:1 2304:1 2321:1 2335:1 2338:1 2464:1 2475:1 2476:1 2477:1 2478:1 3194:1 3195:1 3196:1 3197:1 3913:1 3914:1 3915:1 3916:1 4632:1 4633:1 4634:1 4635:1 5351:1 5352:1 5353:1 5354:1 6071:1 6072:1 6074:1 6453:1 6454:1 6455:1 6456:1 7172:1 7173:1 7174:1 7175:1 7624:1 7625:1 7626:1 7643:1 7657:1 7662:1 7858:1 10490:1 11408:1 11957:1 14197:1 14747:1 15198:1 
1 327:1 656:1 853:1 860:1 1028:1 1035:1 1203:1 1210:1 1577:1 1902:1 2089:1 2096:1 2264:1 2271:1 2439:1 2446:1 2758:1 3477:1 4196:1 4915:1 5634:1 6073:1 6736:1 7328:1 7646:1 7823:1 11408:1 
1 67:1 183:1 355:1 1306:1 1414:1 1624:1 1721:1 2479:1 2665:1 2676:1 3198:1 3384:1 3395:1 3917:1 4103:1 4114:1 4636:1 4822:1 4833:1 5355:1 5541:1 5552:1 6300:1 6457:1 6643:1 6654:1 7356:1 7476:1 7765:1 14226:1 
1 813:1 814:1 988:1 989:1 1163:1 1164:1 2049:1 2050:1 2224:1 2225:1 2399:1 2400:1 7248:1 7622:1 14159:1 
1 88:1 275:1 714:1 733:3 749:1 752:1 889:1 908:3 924:1 927:1 1064:1 1083:3 1099:1 1102:1 1330:1 1504:1 1716:1 1950:1 1969:3 1985:1 1988:1 2125:1 2144:3 2160:1 2163:1 2300:1 2319:3 2335:1 2338:1 2620:1 3339:1 4058:1 4777:1 5496:1 6075:1 6598:1 7190:1 7513:1 7588:1 7623:1 7657:1 7662:1 9475:1 10886:1 11944:1 15392:1 
1 224:1 270:1 656:1 741:1 745:1 880:1 916:1 920:1 1055:1 1091:1 1095:1 1230:1 1395:1 1473:1 1902:1 1977:1 1981:1 2116:1 2152:1 2156:1 2291:1 2327:1 2331:1 2466:1 2669:1 2718:1 2740:1 2758:1 2766:2 2897:1 3388:1 3437:1 3459:1 3477:1 3485:2 3616:1 4107:1 4156:1 4178:1 4196:1 4204:2 4335:1 4826:1 4875:1 4897:1 4915:1 4923:2 5054:1 5545:1 5594:1 5616:1 5634:1 5642:2 5773:1 6427:1 6647:1 6696:1 6718:1 6736:1 6744:2 6875:1 7570:1 7650:1 7654:1 7747:1 7860:1 8041:2 11206:1 11750:1 12927:1 14262:2 
1 28:1 733:1 908:1 1083:1 1267:1 1969:1 2144:1 2319:1 2527:1 2583:2 3246:1 3302:2 3965:1 4021:2 4684:1 4740:2 5403:1 5459:2 6505:1 6561:2 7552:1 7568:1 8137:1 13967:1 15641:1 
1 475:1 727:1 860:1 902:1 1035:1 1077:1 1210:1 1963:1 2096:1 2138:1 2271:1 2313:1 2446:1 2481:1 2644:1 2685:1 3200:1 3363:1 3404:1 3919:1 4082:1 4123:1 4638:1 4801:1 4842:1 5357:1 5520:1 5561:1 6459:1 6622:1 6663:1 7464:1 7556:1 7635:1 7729:1 7803:1 7823:1 7949:1 11411:1 12579:1 12922:1 14262:1 
1 19:1 26:1 739:1 752:1 773:1 914:1 927:1 948:1 1089:1 1102:1 1123:1 1257:1 1260:1 1975:1 1988:1 2009:1 2150:1 2163:1 2184:1 2325:1 2338:1 2359:1 2494:1 2509:1 2837:1 3213:1 3228:1 3556:1 3932:1 3947:1 4275:1 4651:1 4666:1 4994:1 5370:1 5385:1 5713:1 6472:1 6487:1 6815:1 7644:1 7662:1 7684:1 11534:1 11858:1 11929:1 13434:1 14918:1 15308:1 
1 43:1 66:1 165:1 202:1 387:1 473:1 1283:1 1303:1 1407:1 1442:1 1626:1 1681:1 1716:1 2544:1 2785:1 2801:1 2905:1 3182:1 3263:1 3504:1 3520:1 3624:1 3901:1 3982:1 4223:1 4239:1 4343:1 4620:1 4701:1 4942:1 4958:1 5062:1 5339:1 5420:1 5661:1 5677:1 5781:1 6058:1 6134:1 6145:1 6181:1 6522:1 6763:1 6779:1 6883:1 7160:1 7243:1 7259:1 7286:1 9053:1 9475:1 11783:1 11807:1 12997:1 13316:1 
1 9821:1 
1 782:1 813:1 957:1 988:1 1132:1 1163:1 2018:1 2049:1 2193:1 2224:1 2368:1 2399:1 7622:1 7677:1 9665:1 
1 26:1 733:1 735:1 813:1 908:1 910:1 988:1 1083:1 1085:1 1163:1 1260:1 1969:1 1971:1 2049:1 2144:1 2146:1 2224:1 2319:1 2321:1 2399:1 2837:1 3556:1 4275:1 4994:1 5713:1 6414:1 6815:1 7568:1 7597:1 7622:1 7643:1 10490:1 13967:1 14747:1 
1 232:1 727:1 744:1 745:1 822:1 902:1 919:1 920:1 997:1 1077:1 1094:1 1095:1 1172:1 1308:1 1620:1 1963:1 1980:1 1981:1 2058:1 2138:1 2155:1 2156:1 2233:1 2313:1 2330:1 2331:1 2408:1 2481:1 2780:1 3156:1 3200:1 3499:1 3875:1 3919:1 4218:1 4594:1 4638:1 4937:1 5313:1 5357:1 5656:1 6032:1 6429:2 6459:1 6758:1 7134:1 7499:2 7635:1 7653:1 7654:1 7839:1 7949:1 8009:1 11398:1 11411:1 12922:1 
1 2848:1 3567:1 4286:1 5005:1 5724:1 6826:1 7750:1 
1 813:1 988:1 1163:1 2049:1 2224:1 2399:1 6313:1 7517:1 7622:1 7797:1 
1 26:1 353:1 819:1 880:1 994:1 1055:1 1169:1 1230:1 1260:1 1615:1 2055:1 2116:1 2230:1 2291:1 2405:1 2466:1 2514:1 2644:1 2837:1 3233:1 3363:1 3556:1 3952:1 4082:1 4275:1 4671:1 4801:1 4994:1 5390:1 5520:1 5713:1 6219:1 6492:1 6622:1 6815:1 7366:1 7770:1 7803:1 7860:1 12579:1 13823:1 15484:1 15640:1 
1 88:1 853:1 1028:1 1203:1 1330:1 2089:1 2264:1 2439:1 2620:1 3339:1 4058:1 4777:1 5496:1 6075:1 6233:1 6355:1 6379:1 6598:1 7190:1 7593:1 7594:1 7646:1 15673:1 
1 733:1 908:1 1083:1 1969:1 2144:1 2319:1 2762:1 2999:1 3481:1 3718:1 4200:1 4437:1 4919:1 5156:1 5638:1 5875:1 6740:1 6977:1 8646:1 12453:1 
1 727:1 766:1 813:1 902:1 941:1 988:1 1077:1 1116:1 1163:1 1742:1 1963:1 2002:1 2049:1 2138:1 2177:1 2224:1 2313:1 2352:1 2399:1 2481:1 2515:1 2576:1 2939:1 3200:1 3234:1 3295:1 3658:1 3919:1 3953:1 4014:1 4377:1 4638:1 4672:1 4733:1 5096:1 5357:1 5391:1 5452:1 5815:1 6313:1 6459:1 6493:1 6554:1 6917:1 7297:1 7517:1 7622:1 7635:1 7686:1 7949:1 11411:1 12492:1 12922:1 
1 88:1 1330:1 2620:1 3339:1 4058:1 4777:1 5496:1 6075:1 6598:1 7190:1 
1 14262:1 
1 741:1 916:1 1091:1 1842:1 1977:1 2152:1 2327:1 2644:1 3363:1 4082:1 4801:1 5520:1 6449:1 6622:1 7215:1 7650:1 7803:1 11206:1 12579:1 15439:1 
1 26:1 323:1 733:2 745:1 813:1 908:2 920:1 988:1 1083:2 1095:1 1163:1 1260:1 1329:1 1969:2 1981:1 2049:1 2144:2 2156:1 2224:1 2319:2 2331:1 2399:1 2837:1 3130:1 3556:1 3849:1 4275:1 4568:1 4994:1 5287:1 5713:1 6006:1 6203:1 6815:1 7108:1 7280:1 7288:1 7613:1 7622:1 7654:1 
1 417:1 494:1 1668:1 2670:1 2860:1 3389:1 3579:1 4108:1 4298:1 4827:1 5017:1 5546:1 5736:1 6239:1 6648:1 6838:1 7315:1 7421:1 
1 43:1 122:1 813:1 988:1 1163:1 1283:1 1360:1 2049:1 2224:1 2399:1 2728:1 2785:1 3447:1 3504:1 4166:1 4223:1 4885:1 4942:1 5604:1 5661:1 6181:1 6301:1 6330:1 6706:1 6763:1 7259:1 7426:1 7622:1 
1 92:1 210:1 347:1 1326:1 1443:1 1657:1 2551:1 2611:1 2755:1 2804:1 2906:1 3270:1 3330:1 3474:1 3523:1 3625:1 3989:1 4049:1 4193:1 4242:1 4344:1 4708:1 4768:1 4912:1 4961:1 5063:1 5427:1 5487:1 5631:1 5680:1 5782:1 6112:1 6114:1 6427:2 6529:1 6589:1 6733:1 6782:1 6884:1 7216:1 7241:1 7570:2 7725:1 7805:1 7875:1 8910:1 11740:1 11750:2 14800:1 
1 12:1 41:1 732:1 853:1 907:1 1028:1 1082:1 1203:1 1251:1 1264:1 1968:1 2089:1 2143:1 2264:1 2318:1 2439:1 2492:1 2511:1 3211:1 3230:1 3930:1 3949:1 4649:1 4668:1 5368:1 5387:1 6470:1 6489:1 7640:1 7646:1 
1 192:1 735:1 910:1 1085:1 1439:1 1971:1 2146:1 2321:1 2556:1 2687:1 3081:1 3275:1 3406:1 3800:1 3994:1 4125:1 4519:1 4713:1 4844:1 5238:1 5432:1 5563:1 5957:1 6447:1 6534:1 6665:1 7059:1 7458:1 7506:1 7643:1 7796:1 10490:1 14747:1 
1 2790:1 3509:1 4228:1 4947:1 5666:1 6768:1 7556:1 
1 330:1 727:1 766:1 902:1 941:1 1077:1 1116:1 1586:1 1963:1 2002:1 2138:1 2177:1 2313:1 2352:1 2481:1 2515:1 3200:1 3234:1 3919:1 3953:1 4638:1 4672:1 5357:1 5391:1 6113:1 6459:1 6493:1 7351:1 7547:1 7635:1 7686:1 7949:1 11411:1 12922:1 15262:1 
1 1:1 2:1 3:1 33:1 52:1 60:1 68:1 70:1 72:1 76:1 79:1 202:1 274:1 305:1 310:1 312:1 317:1 321:1 322:1 345:1 379:1 409:1 410:1 411:1 413:1 446:1 476:1 477:1 479:1 485:1 715:1 716:1 717:1 718:1 735:1 744:1 758:1 759:1 765:1 791:1 890:1 891:1 892:1 893:1 910:1 919:1 933:1 934:1 940:1 966:1 1065:1 1066:1 1067:1 1068:1 1085:1 1094:1 1108:1 1109:1 1115:1 1141:1 1239:1 1240:1 1241:1 1274:1 1292:1 1305:1 1307:1 1312:1 1323:1 1324:1 1442:1 1523:1 1539:1 1555:1 1559:1 1561:1 1562:1 1563:1 1566:1 1632:1 1645:1 1678:1 1679:1 1690:1 1691:1 1733:1 1951:1 1952:1 1953:1 1954:1 1971:1 1980:1 1994:1 1995:1 2001:1 2027:1 2126:1 2127:1 2128:1 2129:1 2146:1 2155:1 2169:1 2170:1 2176:1 2202:1 2301:1 2302:1 2303:1 2304:1 2321:1 2330:1 2344:1 2345:1 2351:1 2377:1 2475:1 2476:1 2477:1 2478:1 2508:1 2538:1 2556:1 2573:1 2594:1 2656:1 2662:1 2698:1 2817:1 2859:1 2905:1 3194:1 3195:1 3196:1 3197:1 3227:1 3257:1 3275:1 3292:1 3313:1 3375:1 3381:1 3417:1 3536:1 3578:1 3624:1 3913:1 3914:1 3915:1 3916:1 3946:1 3976:1 3994:1 4011:1 4032:1 4094:1 4100:1 4136:1 4255:1 4297:1 4343:1 4632:1 4633:1 4634:1 4635:1 4665:1 4695:1 4713:1 4730:1 4751:1 4813:1 4819:1 4855:1 4974:1 5016:1 5062:1 5351:1 5352:1 5353:1 5354:1 5384:1 5414:1 5432:1 5449:1 5470:1 5532:1 5538:1 5574:1 5693:1 5735:1 5781:1 6071:1 6072:1 6074:1 6166:1 6175:1 6179:1 6199:1 6210:1 6287:1 6319:1 6423:1 6453:1 6454:1 6455:1 6456:1 6486:1 6516:1 6534:1 6551:1 6572:1 6634:1 6640:1 6676:1 6795:1 6837:1 6883:1 7172:1 7173:1 7174:1 7175:1 7211:1 7232:1 7249:1 7270:1 7271:1 7287:1 7354:1 7581:1 7624:1 7625:1 7626:1 7642:1 7643:1 7653:1 7669:1 7670:1 7671:1 7698:1 7982:1 8017:1 10278:1 10490:1 11361:1 11515:1 11814:1 11954:1 13738:1 14747:1 
1 535:1 575:1 782:1 957:1 1132:1 1759:1 2018:1 2193:1 2368:1 2638:1 3357:1 4076:1 4795:1 5514:1 6194:1 6616:1 7518:1 7677:1 8065:1 11404:1 
1 1:1 2:1 3:1 22:2 63:1 72:1 91:1 142:1 147:1 166:1 168:1 170:1 179:1 186:1 187:1 342:1 364:1 715:1 716:1 717:1 718:1 727:3 743:2 747:2 781:1 784:1 785:1 789:1 790:1 791:1 798:1 799:1 802:1 803:1 861:1 884:1 890:1 891:1 892:1 893:1 902:3 918:2 922:2 956:1 959:1 960:1 964:1 965:1 966:1 973:1 974:1 977:1 978:1 1036:1 1059:1 1065:1 1066:1 1067:1 1068:1 1077:3 1093:2 1097:2 1131:1 1134:1 1135:1 1139:1 1140:1 1141:1 1148:1 1149:1 1152:1 1153:1 1211:1 1234:1 1239:1 1240:1 1241:1 1259:2 1300:1 1312:1 1327:1 1378:1 1391:1 1413:1 1419:1 1421:1 1422:1 1426:1 1569:1 1636:1 1951:1 1952:1 1953:1 1954:1 1963:3 1979:2 1983:2 2017:1 2020:1 2021:1 2025:1 2026:1 2027:1 2034:1 2035:1 2038:1 2039:1 2097:1 2120:1 2126:1 2127:1 2128:1 2129:1 2138:3 2154:2 2158:2 2192:1 2195:1 2196:1 2200:1 2201:1 2202:1 2209:1 2210:1 2213:1 2214:1 2272:1 2295:1 2301:1 2302:1 2303:1 2304:1 2313:3 2329:2 2333:2 2367:1 2370:1 2371:1 2375:1 2376:1 2377:1 2384:1 2385:1 2388:1 2389:1 2447:1 2470:1 2475:1 2476:1 2477:1 2478:1 2481:3 2530:2 2573:1 2602:1 2608:1 2703:1 2704:1 2705:1 2717:1 2723:1 2726:1 3101:1 3194:1 3195:1 3196:1 3197:1 3200:3 3249:2 3292:1 3321:1 3327:1 3422:1 3423:1 3424:1 3436:1 3442:1 3445:1 3820:1 3913:1 3914:1 3915:1 3916:1 3919:3 3968:2 4011:1 4040:1 4046:1 4141:1 4142:1 4143:1 4155:1 4161:1 4164:1 4539:1 4632:1 4633:1 4634:1 4635:1 4638:3 4687:2 4730:1 4759:1 4765:1 4860:1 4861:1 4862:1 4874:1 4880:1 4883:1 5258:1 5351:1 5352:1 5353:1 5354:1 5357:3 5406:2 5449:1 5478:1 5484:1 5579:1 5580:1 5581:1 5593:1 5599:1 5602:1 5977:1 6071:1 6072:1 6074:1 6179:1 6317:1 6367:1 6441:1 6453:1 6454:1 6455:1 6456:1 6459:3 6508:2 6551:1 6580:1 6586:1 6681:1 6682:1 6683:1 6695:1 6701:1 6704:1 7079:1 7172:1 7173:1 7174:1 7175:1 7270:1 7367:1 7373:1 7402:1 7509:1 7530:1 7553:1 7574:1 7583:1 7585:1 7619:1 7624:1 7625:1 7626:1 7635:3 7651:2 7652:2 7690:1 7693:1 7694:1 7698:1 7706:1 7723:1 7726:1 7727:1 7731:1 7735:1 7793:1 7824:1 7831:1 7931:2 7949:3 11393:1 11411:3 11586:2 11954:1 12922:3 13365:1 13632:2 14808:1 
1 1:1 2:1 3:1 55:1 425:1 715:1 716:1 717:1 718:1 733:1 890:1 891:1 892:1 893:1 908:1 1065:1 1066:1 1067:1 1068:1 1083:1 1239:1 1240:1 1241:1 1293:1 1664:1 1951:1 1952:1 1953:1 1954:1 1969:1 2126:1 2127:1 2128:1 2129:1 2144:1 2301:1 2302:1 2303:1 2304:1 2319:1 2475:1 2476:1 2477:1 2478:1 2546:1 2603:1 2753:1 3194:1 3195:1 3196:1 3197:1 3265:1 3322:1 3472:1 3913:1 3914:1 3915:1 3916:1 3984:1 4041:1 4191:1 4632:1 4633:1 4634:1 4635:1 4703:1 4760:1 4910:1 5351:1 5352:1 5353:1 5354:1 5422:1 5479:1 5629:1 6071:1 6072:1 6074:1 6316:1 6453:1 6454:1 6455:1 6456:1 6524:1 6581:1 6731:1 7172:1 7173:1 7174:1 7175:1 7283:1 7624:1 7625:1 7626:1 7761:1 7954:1 9094:1 11542:1 13233:1 13450:1 14691:1 
1 88:1 275:1 727:1 744:1 902:1 919:1 1077:1 1094:1 1330:1 1504:1 1963:1 1980:1 2138:1 2155:1 2313:1 2330:1 2481:1 2575:1 2620:1 3030:1 3200:1 3294:1 3339:1 3749:1 3919:1 4013:1 4058:1 4468:1 4638:1 4732:1 4777:1 5187:1 5357:1 5451:1 5496:1 5906:1 6075:1 6459:1 6553:1 6598:1 7008:1 7190:1 7635:1 7653:1 7797:1 7949:1 11411:1 11960:1 12922:1 15430:1 
1 28:1 1267:1 2527:1 3246:1 3965:1 4684:1 5403:1 6213:1 6505:1 7180:1 
1 273:1 737:1 774:1 777:1 912:1 949:1 952:1 1087:1 1124:1 1127:1 1486:1 1973:1 2010:1 2013:1 2148:1 2185:1 2188:1 2323:1 2360:1 2363:1 2578:1 3297:1 4016:1 4735:1 5454:1 6123:1 6556:1 7239:1 7648:1 7688:1 11364:1 11774:1 13065:1 13514:1 14337:1 
1 43:1 584:1 792:1 967:1 1142:1 1283:1 1332:1 2028:1 2203:1 2378:1 2785:1 3504:1 4223:1 4942:1 5661:1 6181:1 6240:1 6763:1 7259:1 7718:1 13257:1 14226:1 
1 13:1 744:1 813:1 919:1 988:1 1094:1 1163:1 1532:1 1980:1 2049:1 2155:1 2224:1 2330:1 2399:1 6381:1 7622:1 7653:1 
1 462:1 775:1 950:1 1125:1 1687:1 2011:1 2186:1 2361:1 7590:1 7678:1 11858:1 14918:1 
1 193:1 196:1 239:1 263:1 389:1 392:1 395:1 734:1 757:1 766:1 786:1 805:1 806:1 858:1 909:1 932:1 941:1 961:1 980:1 981:1 1033:1 1084:1 1107:1 1116:1 1136:1 1155:1 1156:1 1208:1 1447:1 1449:1 1472:1 1501:1 1580:1 1631:1 1634:1 1639:1 1970:1 1993:1 2002:1 2022:1 2041:1 2042:1 2094:1 2145:1 2168:1 2177:1 2197:1 2216:1 2217:1 2269:1 2320:1 2343:1 2352:1 2372:1 2391:1 2392:1 2444:1 2503:1 2515:1 2519:1 2524:1 2536:1 2542:1 2547:1 2548:1 2565:1 2571:1 2572:1 3222:1 3234:1 3238:1 3243:1 3255:1 3261:1 3266:1 3267:1 3284:1 3290:1 3291:1 3941:1 3953:1 3957:1 3962:1 3974:1 3980:1 3985:1 3986:1 4003:1 4009:1 4010:1 4660:1 4672:1 4676:1 4681:1 4693:1 4699:1 4704:1 4705:1 4722:1 4728:1 4729:1 5379:1 5391:1 5395:1 5400:1 5412:1 5418:1 5423:1 5424:1 5441:1 5447:1 5448:1 6102:1 6153:1 6201:1 6243:1 6346:1 6428:1 6481:1 6493:1 6497:1 6502:1 6514:1 6520:1 6525:1 6526:1 6543:1 6549:1 6550:1 7234:1 7268:1 7298:1 7324:1 7347:1 7349:1 7397:1 7547:3 7645:1 7668:1 7685:1 7686:1 7695:1 7696:1 7697:1 7700:1 7701:1 7703:1 7704:1 8053:1 8639:1 11398:1 
1 7763:1 
1 133:1 183:1 202:1 733:4 908:4 1083:4 1268:1 1414:1 1442:1 1969:4 2144:4 2319:4 2531:1 2676:1 2681:1 2700:1 2905:1 3250:1 3395:1 3400:1 3419:1 3624:1 3969:1 4114:1 4119:1 4138:1 4343:1 4688:1 4833:1 4838:1 4857:1 5062:1 5407:1 5552:1 5557:1 5576:1 5781:1 6111:1 6214:1 6300:1 6509:1 6654:1 6659:1 6678:1 6883:1 7285:1 7356:1 7365:1 7489:1 7889:1 7955:1 7963:1 9412:1 13406:1 13407:1 13449:1 14751:1 
1 22:1 229:1 263:1 352:1 364:1 733:1 747:1 857:1 858:1 908:1 922:1 1032:1 1033:1 1083:1 1097:1 1207:1 1208:1 1259:1 1461:1 1501:1 1612:1 1636:1 1924:1 1969:1 1983:1 2093:1 2094:1 2144:1 2158:1 2268:1 2269:1 2319:1 2333:1 2443:1 2444:1 2738:1 3092:1 3169:1 3457:1 3811:1 3888:1 4176:1 4530:1 4607:1 4895:1 5249:1 5326:1 5614:1 5968:1 6045:1 6441:1 6716:1 7070:1 7147:1 7407:1 7652:1 7821:1 7931:1 11360:1 13342:1 
1 745:1 813:1 920:1 988:1 1095:1 1163:1 1981:1 2049:1 2156:1 2224:1 2331:1 2399:1 7622:1 7654:1 13004:1 
1 249:1 749:1 782:1 924:1 957:1 1099:1 1132:1 1506:1 1985:1 2018:1 2160:1 2193:1 2335:1 2368:1 6408:1 7657:1 7677:1 12179:1 
1 330:1 1586:1 3049:1 3768:1 4487:1 5206:1 5925:1 6113:1 7027:1 7196:1 7351:1 7393:1 
1 67:1 185:1 287:1 812:1 987:1 1162:1 1306:1 1403:1 1520:1 2048:1 2223:1 2398:1 2599:1 2639:1 2999:1 3186:1 3318:1 3358:1 3718:1 3905:1 4037:1 4077:1 4437:1 4624:1 4756:1 4796:1 5156:1 5343:1 5475:1 5515:1 5875:1 6062:1 6200:1 6297:1 6433:1 6577:1 6617:1 6977:1 7164:1 7392:1 7449:1 7480:1 7721:1 7989:1 
1 1:1 2:1 3:1 12:1 33:1 63:1 68:1 209:1 215:1 267:1 268:1 299:1 300:1 402:1 403:1 409:1 410:1 414:1 445:1 715:1 716:1 717:1 718:1 729:1 732:1 733:1 734:1 735:1 742:1 745:1 752:1 758:1 785:1 792:1 890:1 891:1 892:1 893:1 904:1 907:1 908:1 909:1 910:1 917:1 920:1 927:1 933:1 960:1 967:1 1065:1 1066:1 1067:1 1068:1 1079:1 1082:1 1083:1 1084:1 1085:1 1092:1 1095:1 1102:1 1108:1 1135:1 1142:1 1239:1 1240:1 1241:1 1251:1 1274:1 1300:1 1305:1 1441:1 1457:1 1496:1 1512:1 1537:1 1542:1 1670:1 1690:1 1691:1 1708:1 1710:1 1712:1 1951:1 1952:1 1953:1 1954:1 1965:1 1968:1 1969:1 1970:1 1971:1 1978:1 1981:1 1988:1 1994:1 2021:1 2028:1 2126:1 2127:1 2128:1 2129:1 2140:1 2143:1 2144:1 2145:1 2146:1 2153:1 2156:1 2163:1 2169:1 2196:1 2203:1 2301:1 2302:1 2303:1 2304:1 2315:1 2318:1 2319:1 2320:1 2321:1 2328:1 2331:1 2338:1 2344:1 2371:1 2378:1 2475:1 2476:1 2477:1 2478:1 2492:1 2503:1 2508:1 2593:1 2605:1 2645:1 2649:1 2654:1 2859:1 3194:1 3195:1 3196:1 3197:1 3211:1 3222:1 3227:1 3312:1 3324:1 3364:1 3368:1 3373:1 3578:1 3913:1 3914:1 3915:1 3916:1 3930:1 3941:1 3946:1 4031:1 4043:1 4083:1 4087:1 4092:1 4297:1 4632:1 4633:1 4634:1 4635:1 4649:1 4660:1 4665:1 4750:1 4762:1 4802:1 4806:1 4811:1 5016:1 5351:1 5352:1 5353:1 5354:1 5368:1 5379:1 5384:1 5469:1 5481:1 5521:1 5525:1 5530:1 5735:1 6071:1 6072:1 6074:1 6199:1 6210:1 6288:1 6446:1 6453:1 6454:1 6455:1 6456:1 6470:1 6481:1 6486:1 6571:1 6583:1 6623:1 6627:1 6632:1 6837:1 7172:1 7173:1 7174:1 7175:1 7232:1 7249:1 7383:1 7447:1 7462:1 7494:1 7624:1 7625:1 7626:1 7640:1 7643:1 7645:1 7647:1 7654:1 7662:1 7670:1 7694:1 7718:1 7736:1 7748:1 7755:1 7756:1 7757:1 10490:1 11361:1 12281:1 14038:1 14747:1 14808:1 
1 70:2 89:1 97:1 103:1 109:1 169:2 342:1 486:1 581:1 714:2 744:1 745:1 757:1 766:1 770:1 773:5 777:1 786:1 807:2 853:1 889:2 919:1 920:1 932:1 941:1 945:1 948:5 952:1 961:1 982:2 1028:1 1064:2 1094:1 1095:1 1107:1 1116:1 1120:1 1123:5 1127:1 1136:1 1157:2 1203:1 1307:2 1334:1 1341:1 1351:1 1418:2 1569:1 1730:1 1754:1 1806:1 1841:1 1950:2 1980:1 1981:1 1993:1 2002:1 2006:1 2009:5 2013:1 2022:1 2043:2 2089:1 2125:2 2155:1 2156:1 2168:1 2177:1 2181:1 2184:5 2188:1 2197:1 2218:2 2264:1 2300:2 2330:1 2331:1 2343:1 2352:1 2356:1 2359:5 2363:1 2372:1 2393:2 2439:1 2509:5 2515:1 2519:1 2524:1 2594:2 2631:1 2696:2 2773:1 3228:5 3234:1 3238:1 3243:1 3313:2 3350:1 3415:2 3492:1 3947:5 3953:1 3957:1 3962:1 4032:2 4069:1 4134:2 4211:1 4666:5 4672:1 4676:1 4681:1 4751:2 4788:1 4853:2 4930:1 5385:5 5391:1 5395:1 5400:1 5470:2 5507:1 5572:2 5649:1 6091:1 6099:1 6165:1 6175:2 6338:1 6381:1 6421:1 6487:5 6493:1 6497:1 6502:1 6572:2 6609:1 6674:2 6751:1 7274:3 7399:1 7400:1 7450:1 7512:2 7607:1 7615:1 7623:2 7646:1 7653:1 7654:1 7668:1 7684:5 7685:1 7686:1 7687:1 7714:2 7762:1 7793:1 8053:1 9767:1 11398:1 12151:1 13065:1 
1 46:1 137:1 181:1 472:1 532:1 535:1 712:1 757:1 786:1 826:1 932:1 961:1 1001:1 1107:1 1136:1 1176:1 1301:1 1304:1 1433:1 1659:1 1901:1 1993:1 2022:1 2062:1 2168:1 2197:1 2237:1 2343:1 2372:1 2412:1 2519:1 2524:1 2805:1 2835:1 2881:1 2901:1 3106:1 3238:1 3243:1 3524:1 3554:1 3600:1 3620:1 3825:1 3957:1 3962:1 4243:1 4273:1 4319:1 4339:1 4544:1 4676:1 4681:1 4962:1 4992:1 5038:1 5058:1 5263:1 5395:1 5400:1 5681:1 5711:1 5757:1 5777:1 5982:1 6127:1 6189:1 6196:1 6497:1 6502:1 6783:1 6813:1 6859:1 6879:1 7084:1 7261:1 7353:1 7371:1 7374:1 7668:1 7685:1 7843:1 8053:1 8549:1 11885:1 11906:1 11964:1 14127:1 15470:1 
1 387:1 473:1 773:1 948:1 1123:1 1626:1 1681:1 1716:1 2009:1 2184:1 2359:1 2509:1 2639:1 2801:1 3228:1 3358:1 3520:1 3947:1 4077:1 4239:1 4666:1 4796:1 4958:1 5385:1 5515:1 5677:1 6487:1 6617:1 6779:1 7684:1 9475:1 13316:1 
1 727:1 902:1 1077:1 1963:1 2138:1 2313:1 2481:1 2531:1 3200:1 3250:1 3919:1 3969:1 4638:1 4688:1 5357:1 5407:1 6459:1 6509:1 7635:1 7949:1 11411:1 12922:1 13407:1 
1 714:2 889:2 1064:2 1950:2 2125:2 2300:2 2513:2 2923:1 3232:2 3642:1 3951:2 4361:1 4670:2 5080:1 5389:2 5799:1 6491:2 6901:1 7623:2 8686:2 9411:1 11802:1 
1 283:1 303:3 733:1 908:1 1083:1 1525:3 1531:1 1969:1 2144:1 2319:1 2596:1 3315:1 4034:1 4753:1 5472:1 6143:3 6177:1 6574:1 7277:3 7807:1 13633:1 13635:1 
1 2644:1 3363:1 4082:1 4801:1 5520:1 6622:1 7803:1 12579:1 
1 96:1 594:1 813:1 871:1 888:1 988:1 1046:1 1063:1 1163:1 1221:1 1238:1 1388:1 1766:1 2049:1 2107:1 2124:1 2224:1 2282:1 2299:1 2399:1 2457:1 2474:1 2856:1 3575:1 4294:1 5013:1 5732:1 6435:1 6451:1 6834:1 7443:1 7546:1 7567:1 7622:1 7627:1 7815:1 7816:1 14262:3 
1 7495:1 
1 494:1 778:1 953:1 1128:1 2014:1 2189:1 2364:1 2860:1 3579:1 4298:1 5017:1 5736:1 6838:1 
1 735:2 813:1 910:2 988:1 1085:2 1163:1 1971:2 2049:1 2146:2 2224:1 2321:2 2399:1 7622:1 7643:2 7763:1 10490:2 14747:2 
1 1:1 2:1 3:1 10:1 126:1 342:1 364:1 434:1 533:1 589:1 715:1 716:1 717:1 718:1 727:1 728:1 733:1 756:2 800:1 890:1 891:1 892:1 893:1 902:1 903:1 908:1 931:2 975:1 1065:1 1066:1 1067:1 1068:1 1077:1 1078:1 1083:1 1106:2 1150:1 1239:1 1240:1 1241:1 1248:1 1363:1 1569:1 1636:1 1667:1 1764:1 1835:1 1951:1 1952:1 1953:1 1954:1 1963:1 1964:1 1969:1 1992:2 2036:1 2126:1 2127:1 2128:1 2129:1 2138:1 2139:1 2144:1 2167:2 2211:1 2301:1 2302:1 2303:1 2304:1 2313:1 2314:1 2319:1 2342:2 2386:1 2475:1 2476:1 2477:1 2478:1 2481:1 2483:1 2582:1 2585:1 2841:1 3049:1 3194:1 3195:1 3196:1 3197:1 3200:1 3202:1 3301:1 3304:1 3560:1 3768:1 3913:1 3914:1 3915:1 3916:1 3919:1 3921:1 4020:1 4023:1 4279:1 4487:1 4632:1 4633:1 4634:1 4635:1 4638:1 4640:1 4739:1 4742:1 4998:1 5206:1 5351:1 5352:1 5353:1 5354:1 5357:1 5359:1 5458:1 5461:1 5717:1 5925:1 6071:1 6072:1 6074:1 6086:1 6229:1 6349:1 6441:1 6453:1 6454:1 6455:1 6456:1 6459:1 6461:1 6560:1 6563:1 6819:1 7027:1 7172:1 7173:1 7174:1 7175:1 7184:1 7359:1 7393:1 7474:1 7624:1 7625:1 7626:1 7635:1 7636:1 7715:1 7793:1 7949:1 7962:1 9178:1 11411:1 12922:1 14245:1 14262:1 
1 24:1 79:1 670:1 727:1 736:1 776:1 783:2 902:1 911:1 951:1 958:2 1077:1 1086:1 1126:1 1133:2 1262:1 1324:1 1903:1 1963:1 1972:1 2012:1 2019:2 2138:1 2147:1 2187:1 2194:2 2313:1 2322:1 2362:1 2369:2 2481:1 2482:1 2649:1 2656:1 3200:1 3201:1 3368:1 3375:1 3919:1 3920:1 4087:1 4094:1 4638:1 4639:1 4806:1 4813:1 5357:1 5358:1 5525:1 5532:1 6082:1 6277:1 6401:1 6459:1 6460:1 6627:1 6634:1 7205:1 7211:1 7635:1 7638:1 7658:2 7682:1 7755:1 7949:1 11411:1 11515:1 11624:1 12922:1 13823:1 14262:1 
1 813:1 988:1 1163:1 2049:1 2224:1 2399:1 6427:1 7570:1 7622:1 11750:1 14262:1 15262:2 
1 66:1 1303:1 2544:1 3263:1 3982:1 4701:1 5420:1 6368:1 6522:1 11783:1 
1 28:1 298:1 434:1 727:1 733:1 775:1 902:1 908:1 950:1 1077:1 1083:1 1125:1 1267:1 1538:1 1667:1 1963:1 1969:1 2011:1 2138:1 2144:1 2186:1 2313:1 2319:1 2361:1 2481:1 2527:1 2700:1 3200:1 3246:1 3419:1 3919:1 3965:1 4138:1 4638:1 4684:1 4857:1 5357:1 5403:1 5576:1 6285:1 6349:1 6459:1 6505:1 6678:1 7275:1 7474:1 7635:1 7678:1 7949:1 7963:1 11411:1 12922:1 14262:1 
1 28:1 183:1 228:1 239:1 282:1 313:1 733:1 853:1 908:1 1028:1 1083:1 1203:1 1267:1 1414:1 1472:1 1480:1 1515:1 1554:1 1969:1 2089:1 2144:1 2264:1 2319:1 2439:1 2527:1 2542:1 2676:1 2679:1 2858:1 3246:1 3261:1 3395:1 3398:1 3577:1 3965:1 3980:1 4114:1 4117:1 4296:1 4684:1 4699:1 4833:1 4836:1 5015:1 5403:1 5418:1 5552:1 5555:1 5734:1 6505:1 6520:1 6654:1 6657:1 6836:1 7266:1 7268:1 7646:1 7696:1 7900:1 10158:1 14768:1 
1 727:2 743:1 902:2 918:1 1077:2 1093:1 1963:2 1979:1 2138:2 2154:1 2313:2 2329:1 2481:2 2530:1 3200:2 3249:1 3919:2 3968:1 4638:2 4687:1 5357:2 5406:1 6459:2 6508:1 7635:2 7651:1 7949:2 11411:2 11586:1 12922:2 13632:1 
1 804:1 979:1 1154:1 2040:1 2215:1 2390:1 7724:1 
1 24:1 88:1 219:1 420:1 776:1 792:1 951:1 967:1 1126:1 1142:1 1262:1 1330:1 1454:1 1647:1 1721:1 2012:1 2028:1 2187:1 2203:1 2362:1 2378:1 2620:1 2697:1 2914:1 3339:1 3416:1 3633:1 4058:1 4135:1 4352:1 4777:1 4854:1 5071:1 5496:1 5573:1 5790:1 6075:1 6082:1 6182:1 6235:1 6380:2 6598:1 6675:1 6892:1 7190:1 7205:1 7348:1 7565:2 7682:1 7718:1 11624:1 14262:1 14938:1 
1 521:1 733:2 735:1 908:2 910:1 1083:2 1085:1 1830:1 1878:1 1969:2 1971:1 2144:2 2146:1 2319:2 2321:1 2552:1 2583:2 2958:1 3271:1 3302:2 3677:1 3990:1 4021:2 4396:1 4709:1 4740:2 5115:1 5428:1 5459:2 5834:1 6108:1 6115:1 6117:1 6530:1 6561:2 6936:1 7210:1 7278:1 7332:1 7643:1 8808:1 10490:1 14747:1 
1 24:1 88:1 219:1 330:2 420:1 776:1 792:1 951:1 967:1 1126:1 1142:1 1262:1 1330:1 1454:1 1586:2 1647:1 1721:1 2012:1 2028:1 2187:1 2203:1 2362:1 2378:1 2620:1 2697:1 3339:1 3416:1 4058:1 4135:1 4777:1 4854:1 5496:1 5573:1 6075:1 6082:1 6113:2 6182:1 6235:1 6380:2 6598:1 6675:1 7190:1 7205:1 7348:1 7351:2 7565:2 7682:1 7718:1 11624:1 14122:1 14262:1 
1 1:1 2:1 3:1 22:2 72:1 142:1 147:1 166:1 168:1 170:1 179:1 186:1 187:1 219:1 327:1 375:1 376:1 377:1 432:1 715:1 716:1 717:1 718:1 727:3 743:2 747:2 781:1 784:1 789:1 790:1 791:1 796:1 798:1 799:1 802:1 803:1 890:1 891:1 892:1 893:1 902:3 918:2 922:2 956:1 959:1 964:1 965:1 966:1 971:1 973:1 974:1 977:1 978:1 1065:1 1066:1 1067:1 1068:1 1077:3 1093:2 1097:2 1131:1 1134:1 1139:1 1140:1 1141:1 1146:1 1148:1 1149:1 1152:1 1153:1 1239:1 1240:1 1241:1 1259:2 1312:1 1378:1 1391:1 1413:1 1419:1 1421:1 1422:1 1426:1 1454:1 1577:1 1596:1 1599:1 1627:1 1683:1 1723:1 1724:1 1725:1 1727:1 1951:1 1952:1 1953:1 1954:1 1963:3 1979:2 1983:2 2017:1 2020:1 2025:1 2026:1 2027:1 2032:1 2034:1 2035:1 2038:1 2039:1 2126:1 2127:1 2128:1 2129:1 2138:3 2154:2 2158:2 2192:1 2195:1 2200:1 2201:1 2202:1 2207:1 2209:1 2210:1 2213:1 2214:1 2301:1 2302:1 2303:1 2304:1 2313:3 2329:2 2333:2 2367:1 2370:1 2375:1 2376:1 2377:1 2382:1 2384:1 2385:1 2388:1 2389:1 2475:1 2476:1 2477:1 2478:1 2481:3 2530:2 2573:1 2602:1 2608:1 2697:1 2703:1 2704:1 2705:1 2717:1 2723:1 2726:1 2844:1 2845:1 3175:1 3194:1 3195:1 3196:1 3197:1 3200:3 3249:2 3292:1 3321:1 3327:1 3416:1 3422:1 3423:1 3424:1 3436:1 3442:1 3445:1 3563:1 3564:1 3894:1 3913:1 3914:1 3915:1 3916:1 3919:3 3968:2 4011:1 4040:1 4046:1 4135:1 4141:1 4142:1 4143:1 4155:1 4161:1 4164:1 4282:1 4283:1 4613:1 4632:1 4633:1 4634:1 4635:1 4638:3 4687:2 4730:1 4759:1 4765:1 4854:1 4860:1 4861:1 4862:1 4874:1 4880:1 4883:1 5001:1 5002:1 5332:1 5351:1 5352:1 5353:1 5354:1 5357:3 5406:2 5449:1 5478:1 5484:1 5573:1 5579:1 5580:1 5581:1 5593:1 5599:1 5602:1 5720:1 5721:1 6051:1 6071:1 6072:1 6074:1 6179:1 6317:1 6367:1 6453:1 6454:1 6455:1 6456:1 6459:3 6508:2 6551:1 6580:1 6586:1 6675:1 6681:1 6682:1 6683:1 6695:1 6701:1 6704:1 6822:1 6823:1 7153:1 7172:1 7173:1 7174:1 7175:1 7270:1 7367:1 7402:1 7445:1 7509:1 7530:1 7553:1 7574:1 7583:1 7585:1 7617:1 7624:1 7625:1 7626:1 7635:3 7651:2 7652:2 7690:1 7693:1 7698:1 7706:1 7723:1 7726:1 7727:1 7731:1 7734:1 7735:1 7931:2 7932:1 7949:3 7952:1 7956:1 8081:1 9456:1 9679:1 10276:1 11372:1 11393:1 11408:1 11411:3 11586:2 11954:1 12922:3 13632:2 15122:1 
1 1:1 2:1 3:1 18:1 68:1 120:1 122:1 127:2 131:1 134:1 135:1 136:1 226:1 230:1 251:1 253:1 254:1 257:1 296:1 715:1 716:1 717:1 718:1 733:1 736:1 737:2 750:1 757:1 777:1 794:1 890:1 891:1 892:1 893:1 908:1 911:1 912:2 925:1 932:1 952:1 969:1 1065:1 1066:1 1067:1 1068:1 1083:1 1086:1 1087:2 1100:1 1107:1 1127:1 1144:1 1239:1 1240:1 1241:1 1256:1 1305:1 1355:1 1360:1 1362:2 1368:1 1370:1 1371:1 1376:1 1468:1 1470:1 1489:1 1492:1 1494:1 1503:1 1527:1 1951:1 1952:1 1953:1 1954:1 1969:1 1972:1 1973:2 1986:1 1993:1 2013:1 2030:1 2126:1 2127:1 2128:1 2129:1 2144:1 2147:1 2148:2 2161:1 2168:1 2188:1 2205:1 2301:1 2302:1 2303:1 2304:1 2319:1 2322:1 2323:2 2336:1 2343:1 2363:1 2380:1 2475:1 2476:1 2477:1 2478:1 2482:1 2501:1 2519:1 2721:1 2728:1 2782:1 2783:1 2787:1 2827:1 2851:2 2859:1 3006:1 3194:1 3195:1 3196:1 3197:1 3201:1 3220:1 3238:1 3440:1 3447:1 3501:1 3502:1 3506:1 3546:1 3570:2 3578:1 3725:1 3913:1 3914:1 3915:1 3916:1 3920:1 3939:1 3957:1 4159:1 4166:1 4220:1 4221:1 4225:1 4265:1 4289:2 4297:1 4444:1 4632:1 4633:1 4634:1 4635:1 4639:1 4658:1 4676:1 4878:1 4885:1 4939:1 4940:1 4944:1 4984:1 5008:2 5016:1 5163:1 5351:1 5352:1 5353:1 5354:1 5358:1 5377:1 5395:1 5597:1 5604:1 5658:1 5659:1 5663:1 5703:1 5727:2 5735:1 5882:1 6071:1 6072:1 6074:1 6105:1 6210:1 6301:1 6453:1 6454:1 6455:1 6456:1 6460:1 6479:1 6497:1 6699:1 6706:1 6760:1 6761:1 6765:1 6805:1 6829:2 6837:1 6984:1 7172:1 7173:1 7174:1 7175:1 7202:1 7249:1 7417:2 7426:1 7438:1 7478:1 7600:1 7621:1 7624:1 7625:1 7626:1 7638:1 7648:2 7656:1 7668:1 7708:1 7758:1 11361:1 11774:2 13065:1 
1 12:1 17:1 373:1 731:1 732:1 906:1 907:1 1081:1 1082:1 1251:1 1255:1 1592:1 1967:1 1968:1 2142:1 2143:1 2317:1 2318:1 2490:1 2492:1 3209:1 3211:1 3928:1 3930:1 4647:1 4649:1 5366:1 5368:1 6077:1 6468:1 6470:1 7185:1 7540:1 7640:1 7641:1 8033:1 
1 330:1 1586:1 6113:1 7351:1 
1 18:1 217:2 750:1 925:1 1100:1 1256:1 1459:2 1986:1 2161:1 2336:1 2501:1 2900:1 3220:1 3619:1 3939:1 4338:1 4658:1 5057:1 5377:1 5776:1 6105:1 6403:2 6479:1 6878:1 7202:1 7344:2 7495:1 7566:1 7584:1 7656:1 
1 123:1 466:1 468:1 814:1 989:1 1164:1 1387:1 1399:1 1425:1 2050:1 2225:1 2400:1 2966:1 3685:1 4404:1 5123:1 5842:1 6162:1 6275:1 6944:1 7370:1 7422:1 12950:1 
1 2681:1 3400:1 4119:1 4838:1 5557:1 6659:1 
1 35:1 193:1 196:1 239:1 260:1 263:1 389:1 392:1 395:1 465:1 734:1 757:1 763:1 766:1 786:1 793:1 794:1 805:1 806:1 858:1 909:1 932:1 938:1 941:1 961:1 968:1 969:1 980:1 981:1 1033:1 1084:1 1107:1 1113:1 1116:1 1136:1 1143:1 1144:1 1155:1 1156:1 1208:1 1272:1 1447:1 1449:1 1472:1 1488:1 1501:1 1580:1 1631:1 1634:1 1639:1 1688:1 1970:1 1993:1 1999:1 2002:1 2022:1 2029:1 2030:1 2041:1 2042:1 2094:1 2145:1 2168:1 2174:1 2177:1 2197:1 2204:1 2205:1 2216:1 2217:1 2269:1 2320:1 2343:1 2349:1 2352:1 2372:1 2379:1 2380:1 2391:1 2392:1 2444:1 2503:1 2515:1 2516:1 2519:1 2524:1 2536:1 2542:1 2547:1 2548:1 2565:1 2571:1 2572:1 2616:1 2646:1 3222:1 3234:1 3235:1 3238:1 3243:1 3255:1 3261:1 3266:1 3267:1 3284:1 3290:1 3291:1 3335:1 3365:1 3941:1 3953:1 3954:1 3957:1 3962:1 3974:1 3980:1 3985:1 3986:1 4003:1 4009:1 4010:1 4054:1 4084:1 4660:1 4672:1 4673:1 4676:1 4681:1 4693:1 4699:1 4704:1 4705:1 4722:1 4728:1 4729:1 4773:1 4803:1 5379:1 5391:1 5392:1 5395:1 5400:1 5412:1 5418:1 5423:1 5424:1 5441:1 5447:1 5448:1 5492:1 5522:1 6102:1 6122:1 6153:1 6201:1 6243:1 6272:1 6296:1 6346:1 6428:1 6481:1 6493:1 6494:1 6497:1 6502:1 6514:1 6520:1 6525:1 6526:1 6543:1 6549:1 6550:1 6594:1 6624:1 7234:1 7268:1 7298:1 7303:1 7324:1 7347:1 7349:1 7376:1 7397:1 7645:1 7663:1 7668:1 7685:1 7686:1 7695:1 7696:1 7697:1 7700:1 7701:1 7703:1 7704:1 7705:1 7708:1 8053:1 8639:1 11398:1 
1 190:1 254:1 572:1 734:1 735:1 737:1 741:1 744:1 756:1 811:1 909:1 910:1 912:1 916:1 919:1 931:1 986:1 1084:1 1085:1 1087:1 1091:1 1094:1 1106:1 1161:1 1315:1 1494:1 1822:1 1970:1 1971:1 1973:1 1977:1 1980:1 1992:1 2047:1 2145:1 2146:1 2148:1 2152:1 2155:1 2167:1 2222:1 2320:1 2321:1 2323:1 2327:1 2330:1 2342:1 2397:1 2503:1 2681:1 3006:1 3222:1 3400:1 3725:1 3941:1 4119:1 4444:1 4660:1 4838:1 5163:1 5379:1 5557:1 5882:1 6146:1 6218:1 6377:1 6481:1 6659:1 6984:1 7382:1 7643:1 7645:1 7648:1 7650:1 7653:1 7709:1 9647:1 10490:1 11206:1 11774:1 11876:1 12129:1 14064:1 14226:1 14747:1 
1 391:1 678:1 735:1 794:1 796:1 910:1 969:1 971:1 1085:1 1144:1 1146:1 1637:1 1971:1 2030:1 2032:1 2146:1 2205:1 2207:1 2321:1 2380:1 2382:1 2575:1 2901:1 3294:1 3620:1 4013:1 4339:1 4732:1 5058:1 5451:1 5777:1 6128:1 6553:1 6879:1 7643:1 7708:1 7734:1 7932:1 7952:1 10490:1 10630:1 10706:1 12283:1 13322:1 14747:1 
1 73:1 95:1 234:1 297:1 353:1 392:1 749:1 878:1 924:1 1053:1 1099:1 1228:1 1310:1 1353:1 1479:1 1535:1 1615:1 1620:1 1631:1 1985:1 2114:1 2160:1 2289:1 2335:1 2464:1 2556:1 2572:1 2664:1 2774:1 3275:1 3291:1 3383:1 3493:1 3994:1 4010:1 4102:1 4212:1 4713:1 4729:1 4821:1 4931:1 5432:1 5448:1 5540:1 5650:1 6191:1 6219:1 6346:1 6534:1 6550:1 6642:1 6752:1 7321:1 7349:1 7366:1 7601:1 7657:1 7695:1 7858:1 11398:1 13116:1 
1 327:1 352:1 399:1 460:1 472:1 581:1 735:3 744:1 910:3 919:1 1085:3 1094:1 1433:1 1577:1 1612:1 1655:1 1680:1 1841:1 1971:3 1980:1 2146:3 2155:1 2321:3 2330:1 2505:1 2738:1 3185:1 3224:1 3457:1 3904:1 3943:1 4176:1 4623:1 4662:1 4895:1 5342:1 5381:1 5614:1 6061:1 6090:1 6091:1 6189:1 6440:1 6483:1 6716:1 7163:1 7231:1 7331:1 7374:1 7405:1 7465:1 7643:3 7653:1 9037:1 9085:1 9767:1 10490:3 11408:1 11887:1 14106:1 14226:1 14433:1 14747:3 15262:1 
1 1:1 2:1 3:1 68:1 158:1 184:1 215:1 272:1 715:1 716:1 717:1 718:1 890:1 891:1 892:1 893:1 1065:1 1066:1 1067:1 1068:1 1239:1 1240:1 1241:1 1305:1 1398:1 1427:1 1457:1 1497:1 1951:1 1952:1 1953:1 1954:1 2126:1 2127:1 2128:1 2129:1 2301:1 2302:1 2303:1 2304:1 2475:1 2476:1 2477:1 2478:1 2603:1 2712:1 2714:1 2716:1 2859:1 2918:1 2999:1 3194:1 3195:1 3196:1 3197:1 3322:1 3431:1 3433:1 3435:1 3578:1 3637:1 3718:1 3913:1 3914:1 3915:1 3916:1 4041:1 4150:1 4152:1 4154:1 4297:1 4356:1 4437:1 4632:1 4633:1 4634:1 4635:1 4760:1 4869:1 4871:1 4873:1 5016:1 5075:1 5156:1 5351:1 5352:1 5353:1 5354:1 5479:1 5588:1 5590:1 5592:1 5735:1 5794:1 5875:1 6071:1 6072:1 6074:1 6210:1 6306:1 6361:1 6453:1 6454:1 6455:1 6456:1 6581:1 6690:1 6692:1 6694:1 6837:1 6896:1 6977:1 7172:1 7173:1 7174:1 7175:1 7249:1 7380:1 7383:1 7423:1 7528:1 7624:1 7625:1 7626:1 11361:1 12880:1 14642:1 
1 67:1 185:1 287:1 777:1 812:1 952:1 987:1 1127:1 1162:1 1306:1 1403:1 1520:1 2013:1 2048:1 2188:1 2223:1 2363:1 2398:1 2599:1 2639:1 2999:1 3007:1 3186:1 3318:1 3358:1 3718:1 3726:1 3905:1 4037:1 4077:1 4437:1 4445:1 4624:1 4756:1 4796:1 5156:1 5164:1 5343:1 5475:1 5515:1 5875:1 5883:1 6062:1 6200:1 6297:2 6433:1 6577:1 6617:1 6977:1 6985:1 7164:1 7392:2 7449:1 7480:1 7721:1 7989:2 11424:1 11858:1 13065:1 14918:1 
1 733:1 735:1 757:1 773:1 786:1 794:1 908:1 910:1 932:1 948:1 961:1 969:1 1083:1 1085:1 1107:1 1123:1 1136:1 1144:1 1969:1 1971:1 1993:1 2009:1 2022:1 2030:1 2144:1 2146:1 2168:1 2184:1 2197:1 2205:1 2319:1 2321:1 2343:1 2359:1 2372:1 2380:1 2509:1 2519:1 2524:1 3228:1 3238:1 3243:1 3947:1 3957:1 3962:1 4666:1 4676:1 4681:1 5385:1 5395:1 5400:1 6487:1 6497:1 6502:1 7643:1 7668:1 7684:1 7685:1 7708:1 8053:1 10490:1 14747:1 
1 878:1 880:1 1053:1 1055:1 1228:1 1230:1 2114:1 2116:1 2289:1 2291:1 2464:1 2466:1 2583:1 2986:1 3087:1 3302:1 3705:1 3806:1 4021:1 4424:1 4525:1 4740:1 5143:1 5244:1 5459:1 5862:1 5963:1 6231:1 6561:1 6964:1 7065:1 7412:1 7799:1 7858:1 7860:1 9077:1 13026:1 
1 28:1 399:1 1267:1 1680:1 2527:1 3246:1 3965:1 4684:1 5403:1 6090:1 6505:1 7231:1 9085:1 
1 1:1 2:1 3:1 10:1 18:1 24:1 40:1 51:1 56:1 115:1 122:1 126:1 128:1 132:1 191:1 210:1 234:1 245:1 715:1 716:1 717:1 718:1 728:1 736:1 750:1 754:1 761:1 776:1 777:1 780:1 782:1 794:1 800:1 801:1 878:1 890:1 891:1 892:1 893:1 903:1 911:1 925:1 929:1 936:1 951:1 952:1 955:1 957:1 969:1 975:1 976:1 1053:1 1065:1 1066:1 1067:1 1068:1 1078:1 1086:1 1100:1 1104:1 1111:1 1126:1 1127:1 1130:1 1132:1 1144:1 1150:1 1151:1 1228:1 1239:1 1240:1 1241:1 1248:1 1256:1 1262:1 1278:1 1287:1 1297:1 1352:1 1360:1 1363:1 1367:1 1377:1 1437:1 1443:1 1478:1 1479:1 1951:1 1952:1 1953:1 1954:1 1964:1 1972:1 1986:1 1990:1 1997:1 2012:1 2013:1 2016:1 2018:1 2030:1 2036:1 2037:1 2114:1 2126:1 2127:1 2128:1 2129:1 2139:1 2147:1 2161:1 2165:1 2172:1 2187:1 2188:1 2191:1 2193:1 2205:1 2211:1 2212:1 2289:1 2301:1 2302:1 2303:1 2304:1 2314:1 2322:1 2336:1 2340:1 2347:1 2362:1 2363:1 2366:1 2368:1 2380:1 2386:1 2387:1 2464:1 2475:1 2476:1 2477:1 2478:1 2482:1 2483:1 2501:1 2513:1 2532:1 2545:1 2556:1 2560:1 2564:1 2585:1 2706:1 2711:1 2728:1 2748:1 2751:1 2755:1 2767:1 2774:1 3194:1 3195:1 3196:1 3197:1 3201:1 3202:1 3220:1 3232:1 3251:1 3264:1 3275:1 3279:1 3283:1 3304:1 3425:1 3430:1 3447:1 3467:1 3470:1 3474:1 3486:1 3493:1 3913:1 3914:1 3915:1 3916:1 3920:1 3921:1 3939:1 3951:1 3970:1 3983:1 3994:1 3998:1 4002:1 4023:1 4144:1 4149:1 4166:1 4186:1 4189:1 4193:1 4205:1 4212:1 4632:1 4633:1 4634:1 4635:1 4639:1 4640:1 4658:1 4670:1 4689:1 4702:1 4713:1 4717:1 4721:1 4742:1 4863:1 4868:1 4885:1 4905:1 4908:1 4912:1 4924:1 4931:1 5351:1 5352:1 5353:1 5354:1 5358:1 5359:1 5377:1 5389:1 5408:1 5421:1 5432:1 5436:1 5440:1 5461:1 5582:1 5587:1 5604:1 5624:1 5627:1 5631:1 5643:1 5650:1 6071:1 6072:1 6074:1 6082:1 6086:1 6105:1 6130:1 6150:1 6301:1 6304:1 6315:1 6336:1 6406:1 6416:1 6431:1 6453:1 6454:1 6455:1 6456:1 6460:1 6461:1 6479:1 6491:1 6510:1 6523:1 6534:1 6538:1 6542:1 6563:1 6684:1 6689:1 6706:1 6726:1 6729:1 6733:1 6745:1 6752:1 7172:1 7173:1 7174:1 7175:1 7184:1 7202:1 7205:1 7237:1 7244:1 7343:1 7361:1 7426:1 7427:1 7448:1 7602:1 7624:1 7625:1 7626:1 7636:1 7638:1 7656:1 7664:1 7667:1 7677:1 7682:1 7683:1 7708:1 7713:1 7715:1 7858:1 7875:1 9178:1 11367:1 11544:1 11624:1 13065:1 13692:1 14226:1 
1 324:1 733:1 908:1 1083:1 1556:1 1969:1 2144:1 2319:1 6120:1 6255:1 7316:1 7482:1 11949:1 15646:1 
1 1:1 2:1 3:1 560:2 715:1 716:1 718:1 786:1 890:1 891:1 893:1 961:1 1065:1 1066:1 1068:1 1136:1 1239:1 1240:1 1241:1 1736:2 1951:1 1952:1 1954:1 2022:1 2126:1 2127:1 2129:1 2197:1 2301:1 2302:1 2304:1 2372:1 2475:1 2476:1 2478:1 2524:1 2559:2 3194:1 3195:1 3197:1 3243:1 3278:2 3913:1 3914:1 3916:1 3962:1 3997:2 4632:1 4633:1 4635:1 4681:1 4716:2 5351:1 5352:1 5354:1 5400:1 5435:2 6071:1 6072:1 6453:1 6454:1 6456:1 6502:1 6537:2 7172:1 7173:1 7174:1 7624:1 7625:1 7626:1 7685:1 8053:1 
1 353:1 1615:1 6219:1 7366:1 
1 1273:1 3088:1 3807:1 4526:1 5245:1 5964:1 6225:1 6438:1 6449:1 7066:1 7611:1 7798:1 11784:1 11951:1 
1 28:4 733:1 908:1 1083:1 1267:4 1969:1 2144:1 2319:1 2527:4 3246:4 3965:4 4684:4 5403:4 6333:1 6505:4 7552:1 13910:1 
1 12:1 98:1 565:1 732:1 764:1 907:1 939:1 1082:1 1114:1 1251:1 1333:1 1840:1 1968:1 2000:1 2143:1 2175:1 2318:1 2350:1 2492:1 2535:1 2647:1 3211:1 3254:1 3366:1 3930:1 3973:1 4085:1 4649:1 4692:1 4804:1 5368:1 5411:1 5523:1 6470:1 6513:1 6625:1 7273:1 7306:1 7640:1 7673:1 
1 35:1 260:1 399:2 763:1 793:1 938:1 968:1 1113:1 1143:1 1272:1 1488:1 1680:2 1999:1 2029:1 2174:1 2204:1 2349:1 2379:1 2516:1 2616:1 3235:1 3335:1 3954:1 4054:1 4673:1 4773:1 5392:1 5492:1 6090:2 6122:1 6272:1 6494:1 6594:1 7231:2 7303:1 7525:1 7663:1 7705:1 9085:2 
1 12:1 98:1 732:1 764:1 907:1 939:1 1082:1 1114:1 1251:1 1333:1 1968:1 2000:1 2143:1 2175:1 2318:1 2350:1 2492:1 2535:1 2734:1 3211:1 3254:1 3453:1 3930:1 3973:1 4172:1 4649:1 4692:1 4891:1 5368:1 5411:1 5610:1 6470:1 6513:1 6712:1 7273:1 7640:1 7673:1 
1 141:1 511:1 733:1 782:2 908:1 957:2 1083:1 1132:2 1677:1 1771:1 1969:1 2018:2 2144:1 2193:2 2319:1 2368:2 2583:4 3153:1 3302:4 3872:1 4021:4 4591:1 4740:4 5310:1 5459:4 6029:1 6409:1 6561:4 7131:1 7549:1 7677:2 8661:1 12045:1 
1 24:1 64:1 66:1 70:1 79:1 184:1 273:2 311:1 399:1 420:1 735:1 745:1 752:1 769:1 774:2 776:1 859:1 870:1 910:1 920:1 927:1 944:1 949:2 951:1 1034:1 1045:1 1085:1 1095:1 1102:1 1119:1 1124:2 1126:1 1209:1 1220:1 1262:1 1303:1 1307:1 1324:1 1427:1 1486:2 1509:1 1560:1 1647:1 1680:1 1971:1 1981:1 1988:1 2005:1 2010:2 2012:1 2095:1 2106:1 2146:1 2156:1 2163:1 2180:1 2185:2 2187:1 2270:1 2281:1 2321:1 2331:1 2338:1 2355:1 2360:2 2362:1 2445:1 2456:1 2544:1 2569:1 2578:2 2583:4 2594:1 2625:1 2656:1 2700:1 2714:1 2753:1 2817:1 3263:1 3288:1 3297:2 3302:4 3313:1 3344:1 3375:1 3419:1 3433:1 3472:1 3536:1 3982:1 4007:1 4016:2 4021:4 4032:1 4063:1 4094:1 4138:1 4152:1 4191:1 4255:1 4701:1 4726:1 4735:2 4740:4 4751:1 4782:1 4813:1 4857:1 4871:1 4910:1 4974:1 5420:1 5445:1 5454:2 5459:4 5470:1 5501:1 5532:1 5576:1 5590:1 5629:1 5693:1 6082:1 6090:1 6111:1 6123:2 6175:1 6235:1 6306:1 6414:2 6522:1 6547:1 6556:2 6561:4 6572:1 6603:1 6634:1 6678:1 6692:1 6731:1 6795:1 7205:1 7211:1 7231:1 7239:2 7285:1 7348:1 7380:1 7597:2 7643:1 7654:1 7662:1 7675:1 7682:1 7688:2 7689:1 7720:1 7822:1 7889:1 7963:1 9085:1 9412:1 10490:1 11515:1 11542:1 11624:1 11783:1 11818:1 13449:1 13450:1 14747:1 
1 36:1 183:1 796:1 971:1 1146:1 1414:1 1760:1 2032:1 2207:1 2382:1 2676:1 3395:1 4114:1 4833:1 5552:1 6654:1 7734:1 7932:1 7952:1 14226:1 
1 18:1 217:1 259:1 363:1 727:1 750:1 902:1 925:1 1077:1 1100:1 1256:1 1459:1 1510:1 1601:1 1963:1 1986:1 2138:1 2161:1 2313:1 2336:1 2481:1 2501:1 2506:1 2867:1 3200:1 3220:1 3225:1 3586:1 3919:1 3939:1 3944:1 4305:1 4638:1 4658:1 4663:1 5024:1 5357:1 5377:1 5382:1 5743:1 6105:1 6222:1 6345:1 6362:1 6403:1 6426:1 6459:1 6479:1 6484:1 6845:1 7202:1 7344:1 7495:1 7503:1 7566:1 7635:1 7656:1 7949:1 11411:1 12922:1 14779:1 
1 6365:1 6381:1 
1 51:1 66:1 172:1 287:1 313:1 733:1 736:1 741:1 794:1 796:1 801:1 813:1 908:1 911:1 916:1 969:1 971:1 976:1 988:1 1083:1 1086:1 1091:1 1144:1 1146:1 1151:1 1163:1 1287:1 1303:1 1416:1 1520:1 1554:1 1969:1 1972:1 1977:1 2030:1 2032:1 2037:1 2049:1 2144:1 2147:1 2152:1 2205:1 2207:1 2212:1 2224:1 2319:1 2322:1 2327:1 2380:1 2382:1 2387:1 2399:1 2482:1 2544:1 2560:1 2679:1 2840:1 3004:1 3201:1 3263:1 3279:1 3398:1 3559:1 3723:1 3920:1 3982:1 3998:1 4117:1 4278:1 4442:1 4639:1 4701:1 4717:1 4836:1 4997:1 5161:1 5358:1 5420:1 5436:1 5555:1 5716:1 5880:1 6096:1 6106:1 6111:1 6150:1 6200:1 6298:1 6460:1 6522:1 6538:1 6657:1 6818:1 6982:1 7244:1 7285:1 7480:1 7622:1 7638:1 7650:1 7708:1 7713:1 7734:1 7759:1 7889:1 7932:1 7952:1 9412:1 11206:1 11367:1 11783:1 13449:1 
1 257:1 1503:1 2644:1 3363:1 4082:1 4801:1 5520:1 6622:1 7797:1 7803:1 12579:1 
1 727:1 902:1 1077:1 1963:1 2138:1 2313:1 2481:1 3200:1 3919:1 4638:1 5357:1 6459:1 7635:1 7949:1 11411:1 12719:1 12922:1 
1 61:1 384:1 813:1 988:1 1163:1 1335:1 1590:1 2049:1 2224:1 2399:1 7465:2 7622:1 9037:2 
1 1:1 2:1 3:1 181:1 273:2 282:1 311:2 325:1 715:1 716:1 718:1 736:1 769:2 774:2 813:1 890:1 891:1 893:1 911:1 944:2 949:2 988:1 1065:1 1066:1 1068:1 1086:1 1119:2 1124:2 1163:1 1239:1 1240:1 1241:1 1301:1 1486:2 1515:1 1560:2 1564:1 1937:2 1951:1 1952:1 1954:1 1972:1 2005:2 2010:2 2049:1 2126:1 2127:1 2129:1 2147:1 2180:2 2185:2 2224:1 2301:1 2302:1 2304:1 2322:1 2355:2 2360:2 2399:1 2475:1 2476:1 2478:1 2482:1 2578:2 2615:1 2625:2 2858:1 3003:2 3194:1 3195:1 3197:1 3201:1 3297:2 3334:1 3344:2 3577:1 3722:2 3913:1 3914:1 3916:1 3920:1 4016:2 4053:1 4063:2 4296:1 4441:2 4632:1 4633:1 4635:1 4639:1 4735:2 4772:1 4782:2 5015:1 5160:2 5351:1 5352:1 5354:1 5358:1 5454:2 5491:1 5501:2 5734:1 5879:2 6071:1 6072:1 6123:2 6247:1 6384:1 6399:1 6421:1 6453:1 6454:1 6456:1 6460:1 6556:2 6593:1 6603:2 6836:1 6981:2 7172:1 7173:1 7174:1 7239:2 7266:1 7399:1 7616:1 7622:1 7624:1 7625:1 7626:1 7638:1 7688:2 7689:2 7751:1 14735:1 
1 23:1 1768:1 7398:1 14262:1 
1 28:1 734:1 880:1 909:1 1055:1 1084:1 1230:1 1267:1 1970:1 2116:1 2145:1 2291:1 2320:1 2466:1 2503:1 2527:1 2638:1 3222:1 3246:1 3357:1 3941:1 3965:1 4076:1 4660:1 4684:1 4795:1 5379:1 5403:1 5514:1 6481:1 6505:1 6616:1 7645:1 7860:1 8065:1 11404:1 
1 28:3 88:1 735:1 766:1 813:1 910:1 941:1 988:1 1085:1 1116:1 1163:1 1267:3 1330:1 1971:1 2002:1 2049:1 2146:1 2177:1 2224:1 2321:1 2352:1 2399:1 2515:1 2527:3 2620:1 3234:1 3246:3 3339:1 3953:1 3965:3 4058:1 4672:1 4684:3 4777:1 5391:1 5403:3 5496:1 6075:1 6493:1 6505:3 6598:1 7190:1 7352:1 7622:1 7643:1 7686:1 10490:1 14262:2 14747:1 
1 2681:1 3400:1 4119:1 4838:1 5557:1 6659:1 
1 282:1 714:2 733:1 813:1 889:2 908:1 988:1 1064:2 1083:1 1163:1 1515:1 1950:2 1969:1 2049:1 2125:2 2144:1 2224:1 2300:2 2319:1 2399:1 2858:1 3577:1 4296:1 5015:1 5734:1 6234:1 6836:1 7266:1 7622:1 7623:2 13346:1 
1 28:1 387:1 554:1 1267:1 1529:1 1626:1 2527:1 3246:1 3965:1 4684:1 5403:1 6505:1 12486:1 12684:1 15262:1 
1 449:1 744:1 919:1 1094:1 1609:1 1620:1 1850:1 1980:1 2155:1 2330:1 2583:1 2923:1 3081:1 3302:1 3642:1 3800:1 4021:1 4361:1 4519:1 4740:1 5080:1 5238:1 5459:1 5799:1 5957:1 6447:1 6561:1 6901:1 7059:1 7317:1 7458:1 7534:1 7653:1 7796:1 11802:1 
1 114:1 744:1 749:1 919:1 924:1 1094:1 1099:1 1279:1 1980:1 1985:1 2155:1 2160:1 2330:1 2335:1 2887:1 3606:1 4325:1 5044:1 5763:1 6865:1 7653:1 7657:1 7941:1 7977:1 7990:1 8063:1 8337:1 9428:1 13151:1 
1 399:1 1680:1 2694:1 3413:1 4132:1 4851:1 5570:1 6090:1 6228:1 6339:1 6410:1 6672:1 7231:1 7519:1 9085:1 12928:1 
1 67:1 185:1 282:1 287:1 812:1 987:1 1162:1 1306:1 1403:1 1515:1 1520:1 2048:1 2223:1 2398:1 2599:1 2639:1 2858:1 2999:1 3186:1 3318:1 3358:1 3577:1 3718:1 3905:1 4037:1 4077:1 4296:1 4437:1 4624:1 4756:1 4796:1 5015:1 5156:1 5343:1 5475:1 5515:1 5734:1 5875:1 6062:1 6200:1 6297:1 6433:1 6577:1 6617:1 6836:1 6977:1 7164:1 7266:1 7392:1 7449:1 7480:1 7721:1 7989:1 
1 714:1 733:1 735:2 845:1 889:1 908:1 910:2 1020:1 1064:1 1083:1 1085:2 1195:1 1950:1 1969:1 1971:2 2081:1 2125:1 2144:1 2146:2 2256:1 2300:1 2319:1 2321:2 2431:1 2513:1 2848:1 3065:1 3232:1 3567:1 3784:1 3951:1 4286:1 4503:1 4670:1 5005:1 5222:1 5389:1 5724:1 5941:1 6324:1 6415:1 6491:1 6826:1 7043:1 7429:1 7524:1 7568:1 7623:1 7643:2 7750:1 7763:1 7776:1 8139:1 10490:2 12100:1 13643:1 13823:1 13967:1 14747:2 15262:1 
1 28:1 1267:1 2527:1 2740:1 3246:1 3459:1 3965:1 4178:1 4684:1 4897:1 5403:1 5616:1 6505:1 6718:1 9821:1 
1 233:1 283:1 303:3 1514:1 1525:3 1531:1 2730:1 3449:1 4168:1 4887:1 5606:1 6137:1 6143:3 6177:1 6708:1 7277:3 7326:1 7744:1 7807:1 13635:1 
1 727:1 902:1 1077:1 1963:1 2138:1 2313:1 2481:1 3200:1 3919:1 4638:1 5357:1 6459:1 7635:1 7949:1 11411:1 12922:1 
1 28:1 1267:1 2527:1 3246:1 3965:1 4684:1 5403:1 6505:1 
1 18:1 217:1 259:1 363:1 750:1 925:1 1100:1 1256:1 1459:1 1510:1 1601:1 1986:1 2161:1 2336:1 2501:1 2506:1 3220:1 3225:1 3939:1 3944:1 4658:1 4663:1 5377:1 5382:1 6105:1 6222:1 6345:1 6362:1 6403:1 6426:1 6479:1 6484:1 7202:1 7344:1 7495:1 7503:1 7566:1 7656:1 14779:1 
1 278:1 452:1 804:1 979:1 1154:1 1682:1 1813:1 2040:1 2215:1 2390:1 2586:1 2653:1 2802:1 3305:1 3372:1 3521:1 4024:1 4091:1 4240:1 4743:1 4810:1 4959:1 5462:1 5529:1 5678:1 6226:1 6564:1 6631:1 6780:1 7724:1 7991:1 8083:1 9932:1 13877:1 15262:1 
1 12:1 17:1 41:1 203:1 530:1 731:1 732:1 733:1 813:1 853:1 906:1 907:1 908:1 988:1 1028:1 1081:1 1082:1 1083:1 1163:1 1203:1 1251:1 1255:1 1264:1 1436:1 1751:1 1967:1 1968:1 1969:1 2049:1 2089:1 2142:1 2143:1 2144:1 2224:1 2264:1 2317:1 2318:1 2319:1 2399:1 2439:1 2490:1 2492:1 2511:1 2686:1 3209:1 3211:1 3230:1 3405:1 3928:1 3930:1 3949:1 4124:1 4647:1 4649:1 4668:1 4843:1 5366:1 5368:1 5387:1 5562:1 6077:1 6468:1 6470:1 6489:1 6664:1 7185:1 7622:1 7640:1 7641:1 7646:1 
1 743:1 918:1 1093:1 1979:1 2154:1 2329:1 2530:1 3249:1 3968:1 4687:1 5406:1 6508:1 7651:1 11586:1 13632:1 15262:1 
1 744:1 796:1 878:1 919:1 971:1 1053:1 1094:1 1146:1 1228:1 1980:1 2032:1 2114:1 2155:1 2207:1 2289:1 2330:1 2382:1 2464:1 7653:1 7734:1 7858:1 7932:1 7952:1 
1 259:1 497:1 733:1 908:1 1083:1 1510:1 1969:1 2144:1 2319:1 2506:1 2918:2 3014:1 3022:1 3225:1 3637:2 3733:1 3741:1 3944:1 4356:2 4452:1 4460:1 4663:1 5075:2 5171:1 5179:1 5382:1 5794:2 5890:1 5898:1 6361:2 6484:1 6896:2 6992:1 7000:1 7378:1 7528:2 8055:1 8057:1 14579:1 
1 183:1 1414:1 1721:1 2676:1 3395:1 4114:1 4833:1 5552:1 6347:1 6654:1 7207:1 7573:1 
1 733:2 908:2 1083:2 1969:2 2144:2 2319:2 
1 28:2 1267:2 2527:2 3246:2 3965:2 4684:2 5403:2 6505:2 
1 36:1 61:1 733:1 908:1 1083:1 1335:1 1760:1 1969:1 2144:1 2319:1 2999:1 3718:1 4437:1 5156:1 5875:1 6977:1 7627:2 
1 12:1 17:1 170:1 229:1 237:1 239:1 344:1 387:1 420:1 473:1 664:1 731:1 732:1 733:2 757:1 786:1 799:1 878:1 906:1 907:1 908:2 932:1 961:1 974:1 1053:1 1081:1 1082:1 1083:2 1107:1 1136:1 1149:1 1228:1 1251:1 1255:1 1421:1 1461:1 1469:1 1472:1 1578:1 1626:1 1647:1 1681:1 1716:1 1845:1 1937:1 1967:1 1968:1 1969:2 1993:1 2022:1 2035:1 2114:1 2142:1 2143:1 2144:2 2168:1 2197:1 2210:1 2289:1 2317:1 2318:1 2319:2 2343:1 2372:1 2385:1 2464:1 2490:1 2492:1 2519:1 2524:1 2542:1 2556:3 2638:1 2704:1 2801:1 2814:1 2923:1 3169:1 3209:1 3211:1 3238:1 3243:1 3261:1 3275:3 3357:1 3423:1 3520:1 3533:1 3642:1 3888:1 3928:1 3930:1 3957:1 3962:1 3980:1 3994:3 4076:1 4142:1 4239:1 4252:1 4361:1 4607:1 4647:1 4649:1 4676:1 4681:1 4699:1 4713:3 4795:1 4861:1 4958:1 4971:1 5080:1 5326:1 5366:1 5368:1 5395:1 5400:1 5418:1 5432:3 5514:1 5580:1 5677:1 5690:1 5799:1 6045:1 6077:1 6235:1 6468:1 6470:1 6497:1 6502:1 6520:1 6534:3 6616:1 6682:1 6779:1 6792:1 6901:1 7147:1 7185:1 7268:1 7348:1 7509:1 7640:1 7641:1 7668:1 7685:1 7696:1 7731:1 7858:1 8009:2 8053:1 8065:1 9475:1 11404:1 11802:1 13316:1 14062:1 14889:1 
1 28:1 727:1 902:1 1077:1 1267:1 1963:1 2138:1 2313:1 2481:1 2527:1 2531:1 3200:1 3246:1 3250:1 3919:1 3965:1 3969:1 4638:1 4684:1 4688:1 5357:1 5403:1 5407:1 6342:1 6459:1 6505:1 6509:1 7635:1 7949:1 11411:1 12922:1 13407:1 
1 24:1 26:1 776:1 812:1 951:1 987:1 1126:1 1162:1 1260:1 1262:1 2012:1 2048:1 2187:1 2223:1 2362:1 2398:1 2837:1 2908:1 3556:1 3627:1 4275:1 4346:1 4994:1 5065:1 5713:1 5784:1 6082:1 6815:1 6886:1 7205:1 7682:1 7721:1 11624:1 14661:1 15053:1 
1 19:1 689:1 739:1 878:2 914:1 1053:2 1089:1 1228:2 1257:1 1440:1 1919:1 1975:1 2114:2 2150:1 2289:2 2325:1 2464:2 2494:1 2922:1 3213:1 3641:1 3932:1 4360:1 4651:1 5079:1 5370:1 5798:1 6180:1 6250:1 6472:1 6900:1 7346:1 7470:1 7644:1 7745:1 7858:2 11929:1 12160:5 13779:1 
1 766:1 941:1 1116:1 1273:1 2002:1 2177:1 2352:1 2515:1 3088:1 3234:1 3807:1 3953:1 4526:1 4672:1 5245:1 5391:1 5964:1 6225:1 6493:1 7066:1 7611:1 7686:1 7798:1 11858:1 11951:1 14918:1 
1 2575:1 3087:2 3294:1 3806:2 4013:1 4525:2 4732:1 5244:2 5451:1 5963:2 6553:1 7065:2 7799:2 
1 66:1 813:1 988:1 1163:1 1303:1 2049:1 2224:1 2399:1 2544:1 3263:1 3982:1 4701:1 5420:1 6212:1 6522:1 7281:1 7622:1 11783:1 
1 19:1 24:1 63:1 68:1 126:1 445:1 464:1 735:1 739:1 773:1 776:1 785:1 800:1 910:1 914:1 948:1 951:1 960:1 975:1 1085:1 1089:1 1123:1 1126:1 1135:1 1150:1 1257:1 1262:1 1300:1 1305:1 1363:1 1670:1 1704:1 1971:1 1975:1 2009:1 2012:1 2021:1 2036:1 2146:1 2150:1 2184:1 2187:1 2196:1 2211:1 2321:1 2325:1 2359:1 2362:1 2371:1 2386:1 2494:1 2509:1 2513:1 2585:1 2621:1 2859:1 3213:1 3228:1 3232:1 3304:1 3340:1 3578:1 3932:1 3947:1 3951:1 4023:1 4059:1 4297:1 4651:1 4666:1 4670:1 4742:1 4778:1 5016:1 5370:1 5385:1 5389:1 5461:1 5497:1 5735:1 6082:1 6210:1 6348:1 6446:1 6472:1 6487:1 6491:1 6563:1 6599:1 6837:1 7205:1 7249:1 7462:1 7557:1 7643:1 7644:1 7682:1 7684:1 7694:1 7715:1 10490:1 11361:1 11624:1 11929:1 12281:1 14747:1 14808:1 
1 228:1 733:1 908:1 1083:1 1480:1 1969:1 2144:1 2319:1 7900:1 10158:1 
1 185:1 287:1 777:1 796:1 812:1 952:1 971:1 987:1 1127:1 1146:1 1162:1 1403:1 1520:1 2013:1 2032:1 2048:1 2188:1 2207:1 2223:1 2363:1 2382:1 2398:1 2599:1 2775:1 2999:1 3007:1 3318:1 3494:1 3718:1 3726:1 4037:1 4213:1 4437:1 4445:1 4756:1 4932:1 5156:1 5164:1 5475:1 5651:1 5875:1 5883:1 6169:1 6200:1 6297:1 6577:1 6753:1 6977:1 6985:1 7387:1 7392:1 7480:1 7721:1 7734:1 7932:1 7952:1 7989:1 11398:1 11424:1 13065:1 
1 28:2 735:1 834:3 910:1 1009:3 1085:1 1184:3 1267:2 1971:1 2070:3 2146:1 2245:3 2321:1 2420:3 2527:2 2770:1 3030:1 3061:3 3246:2 3489:1 3749:1 3780:3 3965:2 4208:1 4468:1 4499:3 4684:2 4927:1 5187:1 5218:3 5403:2 5646:1 5906:1 5937:3 6505:2 6748:1 7008:1 7039:3 7642:1 7643:1 7771:3 7982:1 8017:1 10490:1 11960:1 14747:1 15430:1 
1 487:1 733:1 736:2 778:1 908:1 911:2 953:1 1083:1 1086:2 1128:1 1969:1 1972:2 2014:1 2144:1 2147:2 2189:1 2319:1 2322:2 2364:1 2482:2 3087:1 3201:2 3806:1 3920:2 4525:1 4639:2 5244:1 5358:2 5963:1 6259:1 6268:3 6460:2 7065:1 7428:1 7638:2 7799:1 9169:1 11858:1 12950:1 14262:1 14918:1 
1 18:2 38:3 217:4 259:1 355:1 750:2 925:2 1100:2 1245:3 1256:2 1459:4 1510:1 1624:1 1986:2 2161:2 2336:2 2501:2 2506:1 2561:3 2665:1 3220:2 3225:1 3280:3 3384:1 3939:2 3944:1 3999:3 4103:1 4658:2 4663:1 4718:3 4822:1 5377:2 5382:1 5437:3 5541:1 6105:2 6353:1 6403:4 6479:2 6484:1 6539:3 6643:1 7202:2 7293:3 7344:4 7495:1 7566:1 7656:2 7797:1 11531:1 12066:2 
1 733:1 908:1 1083:1 1969:1 2144:1 2319:1 2700:1 3419:1 4138:1 4857:1 5576:1 6678:1 7963:1 14558:1 
1 35:1 163:1 193:1 260:1 263:1 465:1 562:1 763:1 793:1 857:1 858:1 938:1 968:1 1032:1 1033:1 1113:1 1143:1 1207:1 1208:1 1272:1 1447:1 1488:1 1501:1 1676:1 1688:1 1767:1 1999:1 2029:1 2093:1 2094:1 2174:1 2204:1 2268:1 2269:1 2349:1 2379:1 2443:1 2444:1 2516:1 2547:1 2616:1 2646:1 2978:1 3092:1 3235:1 3266:1 3335:1 3365:1 3697:1 3811:1 3954:1 3985:1 4054:1 4084:1 4416:1 4530:1 4673:1 4704:1 4773:1 4803:1 5135:1 5249:1 5392:1 5423:1 5492:1 5522:1 5854:1 5968:1 6089:1 6102:1 6122:1 6272:1 6296:1 6442:1 6494:1 6525:1 6594:1 6624:1 6956:1 7070:1 7234:1 7303:1 7376:1 7407:1 7663:1 7701:1 7705:1 7821:1 10131:1 11360:1 11398:1 
1 181:1 745:1 920:1 1095:1 1301:1 1981:1 2156:1 2331:1 3122:1 3841:1 4560:1 5279:1 5998:1 7100:1 7551:1 7654:1 
1 63:1 88:1 92:2 181:1 735:1 737:1 741:1 785:1 881:1 910:1 912:1 916:1 960:1 1056:1 1085:1 1087:1 1091:1 1135:1 1231:1 1299:1 1300:1 1301:1 1326:2 1330:1 1971:1 1973:1 1977:1 2021:1 2117:1 2146:1 2148:1 2152:1 2196:1 2292:1 2321:1 2323:1 2327:1 2371:1 2467:1 2551:2 2583:1 2620:1 2720:1 2762:1 2889:1 3082:1 3270:2 3302:1 3339:1 3439:1 3481:1 3608:1 3801:1 3989:2 4021:1 4058:1 4158:1 4200:1 4327:1 4520:1 4708:2 4740:1 4777:1 4877:1 4919:1 5046:1 5239:1 5427:2 5459:1 5496:1 5596:1 5638:1 5765:1 5958:1 6075:1 6309:1 6379:1 6382:1 6529:2 6561:1 6598:1 6698:1 6740:1 6867:1 7060:1 7190:1 7241:2 7247:1 7484:1 7496:1 7575:1 7593:1 7643:1 7648:1 7650:1 7694:1 7725:2 7730:1 7808:1 8132:1 8646:1 10490:1 11206:1 11774:1 12385:2 12397:1 12453:1 12881:1 13013:1 13937:1 14747:1 14808:1 
1 28:2 714:1 733:1 889:1 908:1 1064:1 1083:1 1267:2 1950:1 1969:1 2125:1 2144:1 2300:1 2319:1 2527:2 3246:2 3965:2 4684:2 5403:2 6505:2 7623:1 
1 95:1 201:1 249:1 745:1 813:1 920:1 988:1 1095:1 1163:1 1353:1 1506:1 1709:1 1981:1 2049:1 2156:1 2224:1 2331:1 2399:1 2953:1 3672:1 4391:1 5110:1 5829:1 6375:1 6408:1 6931:1 7498:1 7622:1 7654:1 11710:1 
1 183:1 733:1 908:1 1083:1 1414:1 1969:1 2144:1 2319:1 2676:1 2843:1 3395:1 3562:1 4114:1 4281:1 4833:1 5000:1 5552:1 5719:1 6654:1 6821:1 7247:1 7536:2 7720:1 13013:1 
1 183:1 733:2 908:2 1083:2 1414:1 1969:2 2144:2 2319:2 2676:1 3395:1 4114:1 4833:1 5552:1 6244:1 6280:1 6300:1 6312:1 6654:1 7356:1 7401:1 7442:1 8051:1 10027:1 13534:1 
1 473:1 733:1 908:1 1083:1 1681:1 1969:1 2144:1 2319:1 2583:1 2801:1 3302:1 3520:1 4021:1 4239:1 4740:1 4958:1 5459:1 5677:1 6280:1 6312:1 6561:1 6779:1 7442:1 8051:1 10027:1 13316:1 
1 51:1 68:1 69:1 224:1 425:1 498:1 522:1 631:1 733:1 777:1 801:1 814:1 880:1 908:1 952:1 976:1 989:1 1055:1 1083:1 1127:1 1151:1 1164:1 1230:1 1254:1 1287:1 1305:1 1366:1 1473:1 1664:1 1749:1 1904:1 1969:1 2013:1 2037:1 2050:1 2116:1 2144:1 2188:1 2212:1 2225:1 2291:1 2319:1 2363:1 2387:1 2400:1 2466:1 2560:1 2612:1 2701:1 2718:1 2859:1 3279:1 3331:1 3420:1 3437:1 3578:1 3998:1 4050:1 4139:1 4156:1 4297:1 4717:1 4769:1 4858:1 4875:1 5016:1 5436:1 5488:1 5577:1 5594:1 5735:1 6124:1 6150:1 6210:1 6538:1 6590:1 6679:1 6696:1 6837:1 7194:1 7244:1 7249:1 7315:1 7467:1 7529:1 7713:1 7860:1 8042:1 10226:1 11361:1 11367:1 11424:1 11503:1 11838:1 12733:1 12950:1 13065:1 15262:1 
1 22:1 88:1 714:1 733:2 747:1 889:1 908:2 922:1 1064:1 1083:2 1097:1 1259:1 1330:1 1716:1 1950:1 1969:2 1983:1 2125:1 2144:2 2158:1 2300:1 2319:2 2333:1 2620:1 3339:1 4058:1 4777:1 5496:1 6075:1 6598:1 7190:1 7513:1 7588:1 7623:1 7652:1 7931:1 9475:1 9821:1 
1 744:1 919:1 1094:1 1980:1 2155:1 2330:1 2675:1 3394:1 4113:1 4832:1 5551:1 6653:1 7653:1 15262:1 
1 727:1 902:1 1077:1 1963:1 2138:1 2313:1 2481:1 3200:1 3919:1 4638:1 5357:1 6459:1 7635:1 7949:1 11411:1 12922:1 
1 391:1 678:1 733:1 735:1 794:1 796:1 908:1 910:1 969:1 971:1 1083:1 1085:1 1144:1 1146:1 1637:1 1969:1 1971:1 2030:1 2032:1 2144:1 2146:1 2205:1 2207:1 2319:1 2321:1 2380:1 2382:1 2575:1 2583:1 2681:1 2901:1 3294:1 3302:1 3400:1 3620:1 4013:1 4021:1 4119:1 4339:1 4732:1 4740:1 4838:1 5058:1 5451:1 5459:1 5557:1 5777:1 6128:1 6553:1 6561:1 6659:1 6879:1 7643:1 7708:1 7734:1 7932:1 7952:1 10490:1 10630:1 10706:1 12283:1 13322:1 14747:1 
1 390:4 1604:4 
1 766:1 941:1 1116:1 2002:1 2177:1 2352:1 2515:1 3234:1 3953:1 4672:1 5391:1 6493:1 7534:1 7686:1 14262:1 
1 18:1 217:1 259:1 287:1 342:1 750:1 925:1 1100:1 1256:1 1459:1 1510:1 1520:1 1569:1 1986:1 2161:1 2336:1 2501:1 2506:1 3220:1 3225:1 3939:1 3944:1 4658:1 4663:1 5377:1 5382:1 6105:1 6200:1 6233:1 6403:1 6479:1 6484:1 7202:1 7344:1 7480:1 7495:1 7566:1 7594:1 7656:1 7793:1 
1 66:1 727:1 734:1 902:1 909:1 1077:1 1084:1 1303:1 1963:1 1970:1 2138:1 2145:1 2313:1 2320:1 2481:1 2503:1 2544:1 3200:1 3222:1 3263:1 3919:1 3941:1 3982:1 4638:1 4660:1 4701:1 5357:1 5379:1 5420:1 6459:1 6481:1 6522:1 7304:1 7635:1 7645:1 7949:1 11411:1 11783:1 12922:1 
1 13:1 582:1 794:1 813:1 969:1 988:1 1144:1 1163:1 1249:1 1532:1 2030:1 2049:1 2205:1 2224:1 2380:1 2399:1 2513:1 3049:1 3232:1 3768:1 3951:1 4487:1 4670:1 5206:1 5389:1 5925:1 6491:1 7027:1 7393:1 7622:1 7708:1 12070:1 12950:1 14262:1 
1 729:1 733:1 804:1 904:1 908:1 979:1 1079:1 1083:1 1154:1 1965:1 1969:1 2040:1 2140:1 2144:1 2215:1 2315:1 2319:1 2390:1 2513:2 2644:1 2762:1 2900:1 2986:1 3232:2 3363:1 3481:1 3619:1 3705:1 3951:2 4082:1 4200:1 4338:1 4424:1 4670:2 4801:1 4919:1 5057:1 5143:1 5389:2 5520:1 5638:1 5776:1 5862:1 6283:1 6491:2 6622:1 6740:1 6878:1 6964:1 7584:1 7642:1 7720:1 7724:1 7797:1 7803:1 7982:1 8017:1 8140:1 8646:1 9077:1 12453:1 12579:1 13026:1 
1 12:1 17:1 731:1 732:1 906:1 907:1 1081:1 1082:1 1251:1 1255:1 1967:1 1968:1 2142:1 2143:1 2317:1 2318:1 2490:1 2492:1 3209:1 3211:1 3928:1 3930:1 4647:1 4649:1 5366:1 5368:1 6077:1 6468:1 6470:1 7185:1 7640:1 7641:1 7642:1 7982:1 8017:1 15262:1 
1 735:1 813:1 910:1 988:1 1085:1 1163:1 1971:1 2049:1 2146:1 2224:1 2321:1 2399:1 2513:1 2694:1 3232:1 3413:1 3951:1 4132:1 4670:1 4851:1 5389:1 5570:1 6228:1 6491:1 6672:1 7519:1 7622:1 7642:1 7643:1 7982:1 8017:1 10490:1 14747:1 
1 28:4 741:1 794:1 916:1 969:1 1091:1 1144:1 1267:4 1977:1 2030:1 2152:1 2205:1 2327:1 2380:1 2527:4 2701:1 2744:1 2882:1 3246:4 3420:1 3463:1 3601:1 3965:4 4139:1 4182:1 4320:1 4684:4 4858:1 4901:1 5039:1 5403:4 5577:1 5620:1 5758:1 6081:1 6505:4 6679:1 6722:1 6860:1 7650:1 7708:1 9219:1 11206:1 13689:2 15262:2 
1 233:1 293:1 339:1 813:1 988:1 1163:1 1243:1 1514:1 1739:1 2049:1 2224:1 2399:1 2730:1 3449:1 4168:1 4887:1 5606:1 6137:1 6392:1 6445:1 6708:1 7326:1 7622:1 7744:1 14883:1 
1 28:1 356:1 359:1 458:1 467:1 733:1 908:1 1083:1 1267:1 1608:1 1610:1 1702:1 1707:1 1969:1 2144:1 2319:1 2527:1 2574:1 2604:1 2609:1 2641:1 2871:1 2894:1 2895:1 2896:1 2898:1 3246:1 3293:1 3323:1 3328:1 3360:1 3590:1 3613:1 3614:1 3615:1 3617:1 3965:1 4012:1 4042:1 4047:1 4079:1 4309:1 4332:1 4333:1 4334:1 4336:1 4684:1 4731:1 4761:1 4766:1 4798:1 5028:1 5051:1 5052:1 5053:1 5055:1 5403:1 5450:1 5480:1 5485:1 5517:1 5747:1 5770:1 5771:1 5772:1 5774:1 6505:1 6552:1 6582:1 6587:1 6619:1 6849:1 6872:1 6873:1 6874:1 6876:1 7212:1 7433:1 7559:1 7642:1 7982:1 8017:1 11858:1 14289:1 14918:1 
1 473:1 1681:1 2801:1 3520:1 4239:1 4958:1 5677:1 6779:1 13316:1 
1 28:1 37:1 88:1 115:1 735:1 744:1 754:1 813:1 831:2 910:1 919:1 929:1 988:1 1006:2 1085:1 1094:1 1104:1 1163:1 1181:2 1267:1 1330:1 1352:1 1435:1 1971:1 1980:1 1990:1 2049:1 2067:2 2146:1 2155:1 2165:1 2224:1 2242:2 2321:1 2330:1 2340:1 2399:1 2417:2 2513:1 2527:1 2545:1 2575:1 2620:1 3232:1 3246:1 3264:1 3294:1 3339:1 3951:1 3965:1 3983:1 4013:1 4058:1 4670:1 4684:1 4702:1 4732:1 4777:1 5389:1 5403:1 5421:1 5451:1 5496:1 6075:1 6104:3 6443:1 6491:1 6505:1 6523:1 6553:1 6598:1 7190:1 7531:1 7622:1 7643:1 7653:1 7664:1 7848:2 10490:1 10831:1 11544:1 13082:1 14747:1 15364:1 
1 853:1 1028:1 1203:1 2089:1 2264:1 2439:1 2531:1 2596:1 2804:1 2896:1 3250:1 3315:1 3523:1 3615:1 3969:1 4034:1 4242:1 4334:1 4688:1 4753:1 4961:1 5053:1 5407:1 5472:1 5680:1 5772:1 6509:1 6574:1 6782:1 6874:1 7212:1 7245:1 7627:1 7646:1 10053:1 13407:1 15069:1 15270:1 
1 22:1 183:1 193:1 196:1 239:1 263:1 330:1 389:1 392:1 395:1 734:1 747:1 757:1 766:1 786:1 805:1 806:1 858:1 909:1 922:1 932:1 941:1 961:1 980:1 981:1 1033:1 1084:1 1097:1 1107:1 1116:1 1136:1 1155:1 1156:1 1208:1 1259:1 1414:1 1447:1 1449:1 1472:1 1501:1 1580:1 1586:1 1631:1 1634:1 1639:1 1970:1 1983:1 1993:1 2002:1 2022:1 2041:1 2042:1 2094:1 2145:1 2158:1 2168:1 2177:1 2197:1 2216:1 2217:1 2269:1 2320:1 2333:1 2343:1 2352:1 2372:1 2391:1 2392:1 2444:1 2503:1 2515:1 2519:1 2524:1 2536:1 2542:1 2547:1 2548:1 2565:1 2571:1 2572:1 2676:1 3222:1 3234:1 3238:1 3243:1 3255:1 3261:1 3266:1 3267:1 3284:1 3290:1 3291:1 3395:1 3941:1 3953:1 3957:1 3962:1 3974:1 3980:1 3985:1 3986:1 4003:1 4009:1 4010:1 4114:1 4660:1 4672:1 4676:1 4681:1 4693:1 4699:1 4704:1 4705:1 4722:1 4728:1 4729:1 4833:1 5379:1 5391:1 5395:1 5400:1 5412:1 5418:1 5423:1 5424:1 5441:1 5447:1 5448:1 5552:1 6102:1 6113:1 6153:1 6201:1 6243:1 6346:1 6428:1 6481:1 6493:1 6497:1 6502:1 6514:1 6520:1 6525:1 6526:1 6543:1 6549:1 6550:1 6654:1 7234:1 7268:1 7298:1 7324:1 7347:1 7349:1 7351:1 7397:1 7645:1 7652:1 7668:1 7685:1 7686:1 7695:1 7696:1 7697:1 7700:1 7701:1 7703:1 7704:1 7931:1 8053:1 8639:1 11398:1 14226:1 
1 28:1 126:1 252:1 265:1 294:1 390:3 735:1 736:1 800:1 910:1 911:1 975:1 1085:1 1086:1 1150:1 1267:1 1363:1 1491:1 1495:1 1516:1 1604:3 1971:1 1972:1 2036:1 2146:1 2147:1 2211:1 2321:1 2322:1 2386:1 2482:1 2527:1 2585:1 2813:1 3201:1 3246:1 3304:1 3532:1 3920:1 3965:1 4023:1 4251:1 4639:1 4684:1 4742:1 4970:1 5358:1 5403:1 5461:1 5689:1 6132:1 6170:1 6460:1 6505:1 6563:1 6791:1 7238:1 7256:1 7638:1 7643:1 7715:1 10490:1 11805:1 14244:1 14747:1 
1 10:1 120:1 727:1 728:1 902:1 903:1 1077:1 1078:1 1248:1 1355:1 1963:1 1964:1 2138:1 2139:1 2313:1 2314:1 2481:1 2483:1 2721:1 2887:1 3184:1 3200:1 3202:1 3440:1 3606:1 3903:1 3919:1 3921:1 4159:1 4325:1 4622:1 4638:1 4640:1 4878:1 5044:1 5341:1 5357:1 5359:1 5597:1 5763:1 6060:1 6086:1 6459:1 6461:1 6699:1 6865:1 7162:1 7184:1 7438:1 7635:1 7636:1 7758:1 7941:1 7949:1 7977:1 8063:1 9178:1 11411:1 12922:1 14027:1 
1 733:1 908:1 1083:1 1969:1 2144:1 2319:1 
1 735:1 910:1 1085:1 1971:1 2146:1 2321:1 7643:1 8661:1 10490:1 14747:1 
1 1:1 2:1 3:1 18:1 68:1 120:1 122:1 127:2 209:1 226:1 230:1 251:1 253:1 254:1 257:1 296:1 577:1 715:1 716:1 717:1 718:1 733:1 736:1 737:2 738:1 750:1 757:1 777:1 794:1 890:1 891:1 892:1 893:1 908:1 911:1 912:2 913:1 925:1 932:1 952:1 969:1 1065:1 1066:1 1067:1 1068:1 1083:1 1086:1 1087:2 1088:1 1100:1 1107:1 1127:1 1144:1 1239:1 1240:1 1241:1 1256:1 1305:1 1355:1 1360:1 1362:2 1441:1 1468:1 1470:1 1489:1 1492:1 1494:1 1503:1 1527:1 1743:1 1951:1 1952:1 1953:1 1954:1 1969:1 1972:1 1973:2 1974:1 1986:1 1993:1 2013:1 2030:1 2126:1 2127:1 2128:1 2129:1 2144:1 2147:1 2148:2 2149:1 2161:1 2168:1 2188:1 2205:1 2301:1 2302:1 2303:1 2304:1 2319:1 2322:1 2323:2 2324:1 2336:1 2343:1 2363:1 2380:1 2475:1 2476:1 2477:1 2478:1 2482:1 2501:1 2519:1 2721:1 2728:1 2851:2 2859:1 3006:1 3111:1 3194:1 3195:1 3196:1 3197:1 3201:1 3220:1 3238:1 3440:1 3447:1 3570:2 3578:1 3725:1 3830:1 3913:1 3914:1 3915:1 3916:1 3920:1 3939:1 3957:1 4159:1 4166:1 4289:2 4297:1 4444:1 4549:1 4632:1 4633:1 4634:1 4635:1 4639:1 4658:1 4676:1 4878:1 4885:1 5008:2 5016:1 5163:1 5268:1 5351:1 5352:1 5353:1 5354:1 5358:1 5377:1 5395:1 5597:1 5604:1 5727:2 5735:1 5882:1 5987:1 6071:1 6072:1 6074:1 6105:1 6210:1 6288:1 6301:1 6453:1 6454:1 6455:1 6456:1 6460:1 6479:1 6497:1 6699:1 6706:1 6829:2 6837:1 6984:1 7089:1 7172:1 7173:1 7174:1 7175:1 7202:1 7249:1 7417:2 7426:1 7438:1 7478:1 7494:1 7600:1 7621:1 7624:1 7625:1 7626:1 7638:1 7648:2 7656:1 7668:1 7708:1 7758:1 7850:1 11361:1 11774:2 13065:1 13235:1 13341:1 15467:1 
1 239:1 269:1 1472:1 1500:1 2542:1 2784:1 3261:1 3503:1 3980:1 4222:1 4699:1 4941:1 5418:1 5660:1 6088:1 6520:1 6762:1 7268:1 7430:1 7696:1 
1 22:2 26:1 57:3 81:1 163:1 229:1 278:1 741:3 747:2 749:1 813:1 814:1 916:3 922:2 924:1 988:1 989:1 1091:3 1097:2 1099:1 1163:1 1164:1 1259:2 1260:1 1265:3 1296:1 1461:1 1676:1 1813:1 1977:3 1983:2 1985:1 2049:1 2050:1 2152:3 2158:2 2160:1 2224:1 2225:1 2327:3 2333:2 2335:1 2399:1 2400:1 2653:1 2837:1 2978:1 3169:1 3372:1 3556:1 3697:1 3888:1 4091:1 4275:1 4416:1 4607:1 4810:1 4994:1 5135:1 5326:1 5529:1 5713:1 5854:1 6045:1 6144:2 6234:3 6442:1 6631:1 6815:1 6956:1 7147:1 7219:3 7263:1 7338:2 7622:1 7650:3 7652:2 7657:1 7931:2 11206:3 11924:1 13502:1 13823:1 14069:1 14262:1 15070:1 15110:1 
1 522:1 1749:1 2583:1 2734:1 2775:1 3302:1 3453:1 3494:1 4021:1 4172:1 4213:1 4740:1 4891:1 4932:1 5459:1 5610:1 5651:1 6169:1 6318:1 6561:1 6712:1 6753:1 7387:1 7460:1 7612:1 11398:1 11838:1 14436:1 
1 1:2 2:2 3:2 40:1 145:1 541:1 550:1 577:1 715:2 716:2 718:2 733:1 738:1 766:1 780:1 890:2 891:2 893:2 908:1 913:1 941:1 955:1 1065:2 1066:2 1068:2 1083:1 1088:1 1116:1 1130:1 1239:2 1240:2 1241:2 1278:1 1386:1 1611:1 1743:1 1786:1 1951:2 1952:2 1954:2 1969:1 1974:1 2002:1 2016:1 2126:2 2127:2 2129:2 2144:1 2149:1 2177:1 2191:1 2301:2 2302:2 2304:2 2319:1 2324:1 2352:1 2366:1 2475:2 2476:2 2478:2 2515:1 2564:1 2710:1 3026:1 3111:1 3194:2 3195:2 3197:2 3234:1 3283:1 3429:1 3745:1 3830:1 3913:2 3914:2 3916:2 3953:1 4002:1 4148:1 4464:1 4549:1 4632:2 4633:2 4635:2 4672:1 4721:1 4867:1 5183:1 5268:1 5351:2 5352:2 5354:2 5391:1 5440:1 5586:1 5902:1 5987:1 6071:2 6072:2 6130:1 6134:1 6254:1 6270:1 6325:1 6354:1 6453:2 6454:2 6456:2 6493:1 6542:1 6688:1 7004:1 7089:1 7172:2 7173:2 7174:2 7237:1 7286:1 7314:1 7580:1 7608:1 7624:2 7625:2 7626:2 7683:1 7686:1 7850:1 7942:1 11398:1 13585:1 15292:1 
1 19:1 145:1 398:1 680:1 737:1 739:1 752:1 757:1 786:1 912:1 914:1 927:1 932:1 961:1 1087:1 1089:1 1102:1 1107:1 1136:1 1257:1 1386:1 1614:1 1973:1 1975:1 1988:1 1993:1 2022:1 2148:1 2150:1 2163:1 2168:1 2197:1 2323:1 2325:1 2338:1 2343:1 2372:1 2494:1 2519:1 2524:1 2575:1 2710:1 3004:1 3213:1 3238:1 3243:1 3294:1 3429:1 3723:1 3932:1 3957:1 3962:1 4013:1 4148:1 4442:1 4651:1 4676:1 4681:1 4732:1 4867:1 5161:1 5370:1 5395:1 5400:1 5451:1 5586:1 5880:1 6139:1 6155:1 6270:1 6283:1 6286:2 6295:1 6375:1 6472:1 6497:1 6502:1 6553:1 6688:1 6982:1 7314:1 7325:1 7360:2 7368:1 7498:1 7550:1 7589:1 7644:1 7648:1 7662:1 7668:1 7685:1 7942:1 8053:1 11774:1 11929:1 12065:1 12309:1 13998:1 
1 165:1 298:1 473:1 733:2 908:2 1083:2 1407:1 1538:1 1681:1 1969:2 2144:2 2319:2 2801:1 3182:1 3520:1 3901:1 4239:1 4620:1 4958:1 5339:1 5677:1 6058:1 6145:1 6394:1 6779:1 7160:1 7243:1 7543:1 13316:1 
1 74:1 476:2 745:1 804:1 860:1 920:1 979:1 1035:1 1095:1 1154:1 1210:1 1853:1 1981:1 2040:1 2096:1 2156:1 2215:1 2271:1 2331:1 2390:1 2446:1 2513:1 2554:1 2698:2 3232:1 3273:1 3417:2 3951:1 3992:1 4136:2 4670:1 4711:1 4855:2 5389:1 5430:1 5574:2 6215:1 6423:2 6491:1 6532:1 6676:2 7654:1 7724:1 7740:1 7823:1 14262:2 
1 7269:1 12210:1 
1 13:1 28:1 1267:1 1532:1 2527:1 2637:1 3246:1 3356:1 3965:1 4075:1 4684:1 4794:1 5403:1 5513:1 6311:1 6505:1 6615:1 7313:1 10949:1 
1 12:1 147:1 263:1 362:1 393:1 561:1 601:1 732:1 733:2 735:1 741:1 784:1 819:1 857:1 858:1 907:1 908:2 910:1 916:1 959:1 994:1 1032:1 1033:1 1082:1 1083:2 1085:1 1091:1 1134:1 1169:1 1207:1 1208:1 1251:1 1391:1 1501:1 1629:1 1642:1 1706:1 1740:1 1968:1 1969:2 1971:1 1977:1 2020:1 2055:1 2093:1 2094:1 2143:1 2144:2 2146:1 2152:1 2195:1 2230:1 2268:1 2269:1 2318:1 2319:2 2321:1 2327:1 2370:1 2405:1 2443:1 2444:1 2492:1 2495:1 2512:1 2513:1 2514:1 2608:1 2876:1 3003:1 3092:1 3211:1 3214:1 3231:1 3232:1 3233:1 3327:1 3595:1 3722:1 3811:1 3930:1 3933:1 3950:1 3951:1 3952:1 4046:1 4314:1 4441:1 4530:1 4649:1 4652:1 4669:1 4670:1 4671:1 4765:1 5033:1 5160:1 5249:1 5368:1 5371:1 5388:1 5389:1 5390:1 5484:1 5752:1 5879:1 5968:1 6144:1 6317:1 6365:1 6371:1 6470:1 6473:1 6490:1 6491:1 6492:1 6586:1 6854:1 6981:1 7070:1 7247:1 7338:1 7367:1 7407:1 7640:1 7643:1 7650:1 7690:1 7770:1 7821:1 10451:1 10490:1 11206:1 11360:1 11858:1 13013:1 14747:1 14918:1 
1 621:1 727:1 782:1 902:1 957:1 1077:1 1132:1 1963:1 2018:1 2138:1 2193:1 2313:1 2368:1 2481:1 3200:1 3919:1 4638:1 5357:1 6459:1 7460:1 7596:1 7635:1 7677:1 7949:1 7956:1 8081:1 8174:1 9456:1 11411:1 12922:1 
1 398:1 569:1 1614:1 1814:1 6155:1 6205:1 14765:1 
1 282:3 765:1 940:1 1115:1 1515:3 2001:1 2176:1 2351:1 2858:3 3577:3 4296:3 5015:3 5734:3 6836:3 7266:3 7669:1 13738:1 
1 37:1 61:1 229:1 445:1 467:1 653:1 736:1 853:1 911:1 1028:1 1086:1 1203:1 1335:1 1435:1 1461:1 1670:1 1702:1 1929:1 1972:1 2089:1 2147:1 2264:1 2322:1 2439:1 2482:1 2556:1 2604:1 3169:1 3201:1 3275:1 3323:1 3888:1 3920:1 3994:1 4042:1 4607:1 4639:1 4713:1 4761:1 5326:1 5358:1 5432:1 5480:1 6045:1 6446:1 6460:1 6534:1 6582:1 7147:1 7462:1 7541:1 7638:1 7646:1 8009:1 12281:1 13416:1 14262:1 14984:2 15262:1 15342:1 15364:1 
1 70:1 144:1 232:1 365:1 373:5 457:5 459:5 498:1 757:1 786:1 822:1 932:1 961:1 997:1 1107:1 1136:1 1172:1 1254:1 1307:1 1308:1 1394:1 1592:5 1619:1 1658:5 1660:5 1949:1 1993:1 2022:1 2058:1 2168:1 2197:1 2233:1 2343:1 2372:1 2408:1 2519:1 2524:1 2594:1 2612:1 2633:1 2644:1 2780:1 3082:2 3238:1 3243:1 3313:1 3331:1 3352:1 3363:1 3499:1 3801:2 3957:1 3962:1 4032:1 4050:1 4071:1 4082:1 4218:1 4520:2 4676:1 4681:1 4751:1 4769:1 4790:1 4801:1 4937:1 5239:2 5395:1 5400:1 5470:1 5488:1 5509:1 5520:1 5656:1 5958:2 6175:1 6205:5 6274:1 6336:1 6364:1 6497:1 6502:1 6572:1 6590:1 6611:1 6622:1 6758:1 7060:2 7195:1 7427:1 7471:1 7540:5 7579:5 7587:5 7620:1 7668:1 7685:1 7803:1 7808:2 7839:1 8053:1 11626:1 12579:1 14765:5 
1 216:1 804:2 979:2 1154:2 1343:1 2040:2 2215:2 2390:2 2847:1 3566:1 4285:1 5004:1 5723:1 6274:1 6825:1 7195:1 7441:1 7724:2 13233:1 
1 356:1 359:1 458:1 467:1 733:1 908:1 1083:1 1608:1 1610:1 1702:1 1707:1 1969:1 2144:1 2319:1 2574:1 2604:1 2609:1 2641:1 2871:1 2894:1 2895:1 2896:1 2898:1 3293:1 3323:1 3328:1 3360:1 3590:1 3613:1 3614:1 3615:1 3617:1 4012:1 4042:1 4047:1 4079:1 4309:1 4332:1 4333:1 4334:1 4336:1 4731:1 4761:1 4766:1 4798:1 5028:1 5051:1 5052:1 5053:1 5055:1 5450:1 5480:1 5485:1 5517:1 5747:1 5770:1 5771:1 5772:1 5774:1 6552:1 6582:1 6587:1 6619:1 6849:1 6872:1 6873:1 6874:1 6876:1 7212:1 7433:1 7559:1 7642:1 7982:1 8017:1 11858:1 14289:1 14918:1 
1 279:1 284:1 1519:1 1522:1 2558:1 2760:1 3277:1 3479:1 3996:1 4198:1 4715:1 4917:1 5434:1 5636:1 6536:1 6738:1 7604:1 7894:1 
1 577:1 736:1 738:1 911:1 913:1 1086:1 1088:1 1743:1 1972:1 1974:1 2147:1 2149:1 2322:1 2324:1 2482:1 3111:1 3201:1 3830:1 3920:1 4549:1 4639:1 5268:1 5358:1 5987:1 6460:1 7089:1 7638:1 7850:1 
1 583:1 733:1 878:1 908:1 1053:1 1083:1 1228:1 1811:1 1969:1 2114:1 2144:1 2289:1 2319:1 2464:1 2624:1 3343:1 4062:1 4781:1 5500:1 6220:1 6443:1 6602:1 7476:1 7531:1 7552:1 7858:1 7966:1 13082:1 14035:1 
1 359:1 550:1 575:1 733:2 744:1 745:2 813:1 880:1 908:2 919:1 920:2 988:1 1055:1 1083:2 1094:1 1095:2 1163:1 1230:1 1610:1 1611:1 1759:1 1969:2 1980:1 1981:2 2049:1 2116:1 2144:2 2155:1 2156:2 2224:1 2291:1 2319:2 2330:1 2331:2 2399:1 2466:1 2609:1 2638:2 2644:1 2701:1 2804:1 2817:1 2999:1 3026:1 3082:1 3328:1 3357:2 3363:1 3420:1 3523:1 3536:1 3718:1 3745:1 3801:1 4047:1 4076:2 4082:1 4139:1 4242:1 4255:1 4437:1 4464:1 4520:1 4766:1 4795:2 4801:1 4858:1 4961:1 4974:1 5156:1 5183:1 5239:1 5485:1 5514:2 5520:1 5577:1 5680:1 5693:1 5875:1 5902:1 5958:1 6194:1 6327:1 6587:1 6616:2 6622:1 6679:1 6782:1 6795:1 6977:1 7004:1 7060:1 7518:1 7556:1 7622:1 7627:1 7653:1 7654:2 7720:1 7797:1 7803:1 7808:1 7860:1 8009:2 8065:2 9821:2 11404:2 11858:1 12579:1 14918:1 15139:1 
1 449:1 1273:1 1609:1 2887:1 3088:1 3606:1 3807:1 4325:1 4526:1 5044:1 5245:1 5763:1 5964:1 6225:1 6865:1 7066:1 7611:1 7757:1 7798:1 7941:1 7977:1 8063:1 11858:1 11951:1 14918:1 
1 600:1 744:1 919:1 1094:1 1843:1 1980:1 2155:1 2330:1 2964:1 3683:1 4402:1 5121:1 5840:1 6942:1 7406:1 7653:1 7763:1 
1 621:1 727:1 782:1 902:1 957:1 1077:1 1132:1 1963:1 2018:1 2138:1 2193:1 2313:1 2368:1 2481:1 2531:1 3200:1 3250:1 3919:1 3969:1 4638:1 4688:1 5357:1 5407:1 6459:1 6509:1 7460:1 7596:1 7635:1 7677:1 7949:1 7956:1 8081:1 8174:1 9456:1 11411:1 12922:1 13407:1 
1 727:1 733:1 902:1 908:1 1077:1 1083:1 1963:1 1969:1 2138:1 2144:1 2313:1 2319:1 2481:1 3200:1 3919:1 4638:1 5357:1 6459:1 7471:1 7635:1 7949:1 11411:1 12922:1 14193:1 
1 88:1 455:1 1330:1 1665:1 2620:1 2854:1 3339:1 3573:1 4058:1 4292:1 4777:1 5011:1 5496:1 5730:1 6075:1 6598:1 6832:1 7190:1 
1 64:1 813:1 870:1 988:1 1045:1 1163:1 1220:1 1509:1 2049:1 2106:1 2224:1 2281:1 2399:1 2456:1 2569:1 3288:1 4007:1 4726:1 5445:1 6547:1 7622:1 7675:1 14262:1 
1 8009:1 
1 727:2 902:2 1077:2 1963:2 2138:2 2313:2 2481:2 2531:1 3200:2 3250:1 3919:2 3969:1 4638:2 4688:1 5357:2 5407:1 6436:1 6459:2 6509:1 7466:1 7635:2 7949:2 11411:2 12412:1 12922:2 13407:1 
1 66:2 516:1 743:1 918:1 1093:1 1303:2 1585:1 1979:1 2154:1 2329:1 2530:1 2544:2 2771:1 2887:1 2948:1 3249:1 3263:2 3490:1 3606:1 3667:1 3968:1 3982:2 4209:1 4325:1 4386:1 4687:1 4701:2 4928:1 5044:1 5105:1 5406:1 5420:2 5647:1 5763:1 5824:1 6508:1 6522:2 6749:1 6865:1 6926:1 7627:1 7651:1 7941:1 7977:1 7990:1 8063:1 11586:1 11783:2 13632:1 14133:1 
1 37:1 529:1 1435:1 1750:1 2940:1 3659:1 4378:1 5097:1 5816:1 6335:1 6918:1 13993:1 15364:1 
1 813:1 988:1 1163:1 2049:1 2224:1 2399:1 3081:1 3800:1 4519:1 5238:1 5957:1 6447:1 7059:1 7458:1 7622:1 7796:1 14262:1 
1 621:1 8009:1 11604:1 11858:2 14918:2 
1 70:1 144:1 232:1 365:1 373:5 457:5 459:5 498:1 757:1 786:1 822:1 932:1 961:1 997:1 1107:1 1136:1 1172:1 1254:1 1307:1 1308:1 1394:1 1592:5 1619:1 1658:5 1660:5 1949:1 1993:1 2022:1 2058:1 2168:1 2197:1 2233:1 2343:1 2372:1 2408:1 2519:1 2524:1 2594:1 2612:1 2633:1 2644:1 2780:1 3082:2 3238:1 3243:1 3313:1 3331:1 3352:1 3363:1 3499:1 3801:2 3957:1 3962:1 4032:1 4050:1 4071:1 4082:1 4218:1 4520:2 4676:1 4681:1 4751:1 4769:1 4790:1 4801:1 4937:1 5239:2 5395:1 5400:1 5470:1 5488:1 5509:1 5520:1 5656:1 5958:2 6175:1 6205:5 6274:1 6336:1 6364:1 6497:1 6502:1 6572:1 6590:1 6611:1 6622:1 6758:1 7060:2 7195:1 7427:1 7471:1 7540:5 7579:5 7587:5 7620:1 7668:1 7685:1 7803:1 7808:2 7839:1 8053:1 11626:1 12579:1 14765:5 
1 735:1 736:1 737:1 744:1 756:1 910:1 911:1 912:1 919:1 931:1 1085:1 1086:1 1087:1 1094:1 1106:1 1971:1 1972:1 1973:1 1980:1 1992:1 2146:1 2147:1 2148:1 2155:1 2167:1 2321:1 2322:1 2323:1 2330:1 2342:1 2482:1 2889:2 3201:1 3608:2 3920:1 4327:2 4639:1 5046:2 5358:1 5765:2 6460:1 6867:2 7638:1 7643:1 7648:1 7653:1 10490:1 11774:1 11876:1 14226:1 14747:1 
1 95:1 744:1 778:1 853:3 880:1 919:1 953:1 1028:3 1055:1 1094:1 1128:1 1203:3 1230:1 1353:1 1980:1 2014:1 2089:3 2116:1 2155:1 2189:1 2264:3 2291:1 2330:1 2364:1 2439:3 2466:1 7537:2 7646:3 7653:1 7860:1 7972:1 12683:1 12803:1 12835:1 12950:1 14262:1 
1 2552:1 3185:1 3271:1 3904:1 3990:1 4623:1 4709:1 5342:1 5428:1 6061:1 6530:1 7163:1 7331:1 
1 452:1 473:1 714:4 744:1 853:1 880:1 889:4 919:1 1028:1 1055:1 1064:4 1094:1 1203:1 1230:1 1681:1 1682:1 1949:1 1950:4 1980:1 2089:1 2116:1 2125:4 2155:1 2264:1 2291:1 2300:4 2330:1 2439:1 2466:1 2801:1 2802:1 2870:1 3520:1 3521:1 3589:1 4239:1 4240:1 4308:1 4958:1 4959:1 5027:1 5677:1 5678:1 5746:1 6226:1 6779:1 6780:1 6848:1 7623:4 7646:1 7653:1 7743:1 7757:1 7860:1 13316:1 14262:1 15394:1 
1 66:1 745:1 775:1 814:1 819:1 920:1 950:1 989:1 994:1 1095:1 1125:1 1164:1 1169:1 1303:1 1981:1 2011:1 2050:1 2055:1 2156:1 2186:1 2225:1 2230:1 2331:1 2361:1 2400:1 2405:1 2514:1 2544:1 2552:1 3156:1 3175:1 3233:1 3263:1 3271:1 3875:1 3894:1 3952:1 3982:1 3990:1 4594:1 4613:1 4671:1 4701:1 4709:1 5313:1 5332:1 5390:1 5420:1 5428:1 6032:1 6051:1 6429:1 6492:1 6522:1 6530:1 7134:1 7153:1 7499:1 7654:1 7678:1 7770:1 8009:1 11398:1 11783:1 
1 66:1 232:1 275:1 327:1 714:1 727:1 733:2 736:1 822:1 831:1 889:1 902:1 908:2 911:1 997:1 1006:1 1064:1 1077:1 1083:2 1086:1 1172:1 1181:1 1303:1 1308:1 1504:1 1577:1 1950:1 1963:1 1969:2 1972:1 2058:1 2067:1 2125:1 2138:1 2144:2 2147:1 2233:1 2242:1 2300:1 2313:1 2319:2 2322:1 2408:1 2417:1 2481:1 2482:1 2544:1 2583:3 2672:1 2753:1 2780:1 2997:1 3200:1 3201:1 3263:1 3302:3 3391:1 3472:1 3499:1 3716:1 3919:1 3920:1 3982:1 4021:3 4110:1 4191:1 4218:1 4435:1 4638:1 4639:1 4701:1 4740:3 4829:1 4910:1 4937:1 5154:1 5357:1 5358:1 5420:1 5459:3 5548:1 5629:1 5656:1 5873:1 6182:1 6438:1 6459:1 6460:1 6522:1 6561:3 6650:1 6731:1 6758:1 6975:1 7623:1 7635:1 7638:1 7839:1 7848:1 7949:1 11408:1 11411:1 11542:1 11783:1 11953:1 12882:1 12922:1 13450:1 13665:1 15070:1 15263:1 
1 67:1 282:1 503:1 1306:1 1515:1 1776:1 2751:1 2858:1 3470:1 3577:1 4189:1 4296:1 4908:1 5015:1 5627:1 5734:1 6416:1 6729:1 6836:1 7266:1 8439:1 
1 207:1 733:1 813:1 908:1 988:1 1083:1 1163:1 1969:1 2049:1 2144:1 2224:1 2319:1 2399:1 7622:1 10450:1 
1 185:1 193:1 252:2 265:2 735:1 752:1 757:1 786:1 796:1 910:1 927:1 932:1 961:1 971:1 1085:1 1102:1 1107:1 1136:1 1146:1 1403:1 1447:1 1491:2 1495:2 1971:1 1988:1 1993:1 2022:1 2032:1 2146:1 2163:1 2168:1 2197:1 2207:1 2321:1 2338:1 2343:1 2372:1 2382:1 2519:1 2524:1 2547:1 2599:1 3238:1 3243:1 3266:1 3318:1 3957:1 3962:1 3985:1 4037:1 4676:1 4681:1 4704:1 4756:1 5395:1 5400:1 5423:1 5475:1 6102:1 6132:2 6170:2 6258:1 6497:1 6502:1 6525:1 6577:1 7234:1 7238:2 7256:2 7372:1 7643:1 7662:1 7668:1 7685:1 7701:1 7734:1 7932:1 7952:1 8053:1 10490:1 11398:1 12296:1 14244:2 14747:1 
1 813:1 988:1 1163:1 2049:1 2224:1 2399:1 3171:1 3890:1 4609:1 5328:1 6047:1 7149:1 7622:1 
